tree
version=v4
num_class=1
num_tree_per_iteration=1
label_index=0
max_feature_idx=32
objective=binary sigmoid:1
feature_names=InstallmentNumber install_progress_lag days_since_origination cum_payin_ratio_lag cum_collected_rate_lag cum_partial_rate_lag cum_3rdparty_rate_lag cum_early_rate_lag prior_distress_lag had_arrangement_by_lag had_3rdparty_by_lag CustType_bin Frequency_enc log_orig_amt month_sin month_cos hist_payment_count_lag hist_success_count_lag hist_fail_count_lag hist_success_rate_lag hist_total_amount_lag hist_avg_amount_lag hist_last_payment_amount_lag log_hist_last_payment_amount_lag hist_last_attempt_was_success_lag hist_last_attempt_was_fail_lag hist_days_since_last_payment_lag hist_days_since_last_success_lag hist_fail_streak_lag hist_recent_fail_count_last_3_lag due_day_of_week due_day_of_month due_is_month_end
feature_infos=[1:25] [0:0.95999999999999996] [-2:648] [0:8.1666666666666661] [0:1] [0:1] none [0:1] [0:15] [0:1] none [0:1] [-1:3] [5.3033049080590757:7.3138868316334618] [-1:1] [-1:1] [0:118] [0:49] [0:100] [0:1] [0:42305] [0:1945] [0:2000] [0:7.6014023345837334] [0:1] [0:1] [0:331] [0:396] [0:53] [0:3] [0:4] [1:31] [0:1]
tree_sizes=3363 3533 3514 3522 3528 3524 3522 3538 3511 3523 3518 3536 3548 3536 3539 3514 3526 3542 3520 3512 3525 3541 3527 3555 3513 3527 3536 3527 3557 3521 3539 3533 3545 3542 3538 3536 3550 3531 3544 3545 3545 3518 3526 3543 3537 3528 3548 3536 3523 3544 3528 3544 3537 3519 3545 3534 3528 3532 3546 3539 3553 3559 3548 3549 3547 3558 3538 3539 3533 3531 3542 3553 3547 3535 3540 3564 3545 3532 3555 3541 3559 3539 3540 3544 3543 3508 3570 3531 3541 3549 3556 3564 3533 3551 3566 3537 3543 3543 3547 3562 3556 3549 3561 3540 3554 3545 3535 3549 3536 3542 3538 3549 3544 3528 3540 3512 3526 3548 3555 3556 3571 3530 3508 3538 3547 3535 3531 3539 3555 3540 3573 3524 3536 3548 3558 3526 3526 3538 3545 3539 3517 3534 3553 3555 3544 3545 3532 3560 3508 3459 3558 3497 3550 3548 3520 3540 3532 3553 3523 3524 3550 3533 3486 3550 3528 3529 3463 3534 3501 3499 3535 3529 3535 3536 3526 3519 3508 3552 3523 3516 3506 3532 3517 3498 3543 3556 3436 3493 3490 3528 3543 3560 3537 3518 3524 3519 3473 3529 3490 3465 3433 3489 3468 3464 3521 3514 3508 3446 3506 3523 3516 3466 3518 3534 3511 3488 3523 3493 3531 3484 3557 3551 3474 3523 3463 3409 3429 3429 3492 3503 3507 3466 3498 3526 3527 3436 3426 3516 3540 3512 3478 3477 3467 3458 3513 3522 3484 3450 3481 3533 3500 3480 3472 3482 3529 3507 3490 3528 3464 3507 3481 3472 3495 3475 3529 3513 3536 3437 3441 3447 3461 3507 3511 3467 3445 3549 3494 3554 3500 3482 3519 3457 3496 3412 3479 3500 3449 3519 3489 3521 3511 3530 3500 3502 3523 3506 3474 3500 3490 3494 3550 3470 3430 3440 3471 3460 3449 3450 3500 3465 3463 3453 3487 3459 3471 3497 3476 3474 3512 3476 3477 3521 3466 3500 3489 3417 3539 3424 3547 3485 3450 3466 3468 3463 3514 3453 3463 3472 3403 3509 3470 3472 3417 3464 3427 3509 3515 3494 3526 3531 3486 3478 3460 3491 3487 3410 3449 3467 3431 3405 3421 3441 3489 3426 3455 3468 3435 3507 3533 3459 3422 3478 3442 3466 3418 3518 3463 3471 3475 3482 3403 3439 3401 3431 3471 3509 3505 3461 3500 3494 3499 3501 3489 3508 3522 3475 3457 3511 3504 3454

Tree=0
num_leaves=31
num_cat=0
split_feature=29 0 1 0 1 11 1 22 1 0 1 0 8 1 26 11 0 11 0 0 1 11 8 22 8 4 13 11 1 22
split_gain=28629.2 6939.18 31154.9 9589.39 20526.1 6647.26 5852.98 8813.63 5838.67 6708.7 5225.86 9710.69 5140.58 4131.13 4033.59 3274.92 3257.14 2288.33 2251.23 2136.59 4591.7 1531.97 1415.17 1018.1 913.588 775.623 751.176 1058.06 749.423 733.362
threshold=1.0000000180025095e-35 6.5000000000000009 0.65942028985507262 2.5000000000000004 0.49000000000000005 1.0000000180025095e-35 0.85357142857142865 125.02500000000002 0.74342105263157909 6.5000000000000009 0.74342105263157909 4.5000000000000009 1.5000000000000002 0.85357142857142865 1.0000000180025095e-35 1.0000000180025095e-35 12.500000000000002 1.0000000180025095e-35 12.500000000000002 3.5000000000000004 0.65942028985507262 1.0000000180025095e-35 1.0000000180025095e-35 108.01500000000001 1.0000000180025095e-35 0.59411764705882364 5.6162816019403303 1.0000000180025095e-35 0.9110671936758894 174.12500000000003
decision_type=2 2 2 2 2 2 2 2 2 2 2 2 2 2 2 2 2 2 2 2 2 2 2 2 2 2 2 2 2 2
left_child=1 2 3 4 14 -6 -3 -8 12 24 11 17 19 -11 26 -12 22 -4 21 20 -2 -9 -15 -7 -10 -21 27 -1 -18 -17
right_child=8 6 10 -5 5 23 7 18 9 13 15 -13 -14 16 -16 29 28 -19 -20 25 -22 -23 -24 -25 -26 -27 -28 -29 -30 -31
leaf_value=1.7477558639301298 1.6752648001274049 1.7683559740538681 1.4838898944093544 1.7611811006722005 1.4736044768368775 1.7140399310332495 1.7520271395510276 1.5227013114962165 1.5096439163378967 1.7035651575106312 1.4892499781519721 1.7622433717316477 1.5727301738717607 1.5785703592986196 1.7559726076519104 1.6680684533195438 1.7255427576026185 1.6238185957395406 1.7137119574243673 1.642825125112173 1.4719200319818071 1.6350570431989566 1.4229038035566446 1.6136530020871043 1.4000708226876111 1.7164937373416334 1.716213135223112 1.6394427027482075 1.6009549001034491 1.5804712141639206
leaf_weight=325.40079492330551 2101.7880526185036 18118.094952762127 590.19906932115555 19346.100166976452 1023.0374537110329 407.10483002662659 3563.1966049075127 624.16736108064651 382.14328229427338 975.04437482357025 1229.4205597043037 1058.0350876450539 1220.6711512207985 242.92475318908691 8383.6060082316399 344.70096069574356 224.78259736299515 578.61896985769272 402.85879355669022 399.89943480491638 319.8680807352066 590.3277370929718 365.93114304542542 665.34104806184769 378.79792022705078 3353.5968046188354 15582.3105058074 734.1783059835434 260.68090569972992 778.69735503196716
leaf_count=2529 16335 140813 4587 150357 7951 3164 27693 4851 2970 7578 9555 8223 9487 1888 65157 2679 1747 4497 3131 3108 2486 4588 2844 5171 2944 26064 121105 5706 2026 6052
internal_value=1.72155 1.73234 1.72202 1.73429 1.7151 1.56478 1.75496 1.70809 1.64312 1.58204 1.5976 1.6525 1.66649 1.62872 1.72769 1.54564 1.56204 1.55316 1.61129 1.68502 1.64841 1.57731 1.48501 1.65176 1.4551 1.70865 1.71344 1.67271 1.65864 1.60735
internal_weight=0 74345.4 51046.8 46467.1 27121 2095.48 23298.6 5180.55 10226.1 2830.3 4579.67 2226.85 7395.82 2069.36 25025.5 2352.82 1094.32 1168.82 1617.35 6175.15 2421.66 1214.5 608.856 1072.45 760.941 3753.5 16641.9 1059.58 485.464 1123.4
internal_count=657286 577809 396733 361140 210783 16286 181076 40263 79477 21997 35593 17307 57480 16083 194497 18286 8505 9084 12570 47993 18821 9439 4732 8335 5914 29172 129340 8235 3773 8731
is_linear=0
shrinkage=1


Tree=1
num_leaves=31
num_cat=0
split_feature=29 17 1 16 1 1 22 1 11 8 3 26 1 17 11 17 24 3 1 11 1 22 11 20 8 13 11 11 19 24
split_gain=24547.2 6112.22 25507.1 8464.54 16027.2 4828.04 7207.19 4301.71 3943.16 3910.56 3615.24 3543.21 2998.31 6588.47 1800.94 1527.13 1451.74 1406.12 2005.5 1340.68 1263.54 1615.46 983.579 816.58 672.288 646.858 888.744 710.144 577.982 575.695
threshold=1.0000000180025095e-35 5.5000000000000009 0.65942028985507262 1.5000000000000002 0.49000000000000005 0.85357142857142865 125.02500000000002 0.74342105263157909 1.0000000180025095e-35 1.5000000000000002 1.5833366666666671 3.5000000000000004 0.71714285714285719 3.5000000000000004 1.0000000180025095e-35 11.500000000000002 1.0000000180025095e-35 0.55119047619047634 0.60555555555555574 1.0000000180025095e-35 0.85357142857142865 106.05000000000001 1.0000000180025095e-35 76.000000000000014 1.0000000180025095e-35 5.6162816019403303 1.0000000180025095e-35 1.0000000180025095e-35 0.90238095238095251 1.0000000180025095e-35
decision_type=2 2 2 2 2 2 2 2 2 2 2 2 2 2 2 2 2 2 2 2 2 2 2 2 2 2 2 2 2 2
left_child=1 2 3 4 11 28 -7 9 -6 17 16 25 13 19 -14 22 -9 18 -2 -4 -12 -22 -8 -10 -23 26 -1 -27 -3 -11
right_child=7 5 12 -5 8 6 15 10 23 29 20 -13 14 -15 -16 -17 -18 -19 -20 -21 21 24 -24 -25 -26 27 -28 -29 -30 -31
leaf_value=0.025373309493733592 -0.051773920743225746 0.023744146951908969 -0.19140876131601192 0.037829864602248985 -0.20079271568056001 0.029805719261792846 -0.16730395639095333 -0.061681461979029711 -0.0018042346778402143 -0.147908238415526 -0.029839010278907847 0.033165540202313423 -0.19059755703460229 0.033591550026766497 -0.10317989479492584 -0.021726144193382414 -0.20534838006717815 -0.017600360627213457 -0.21964570597046623 -0.08839050189250483 -0.029212633929121708 -0.10910889020623607 -0.077523768760474329 -0.096713333310728455 -0.21655037964496585 -0.016558158983374031 -0.07370811474139731 0.0048071255087483254 0.04675262566341714 -0.075302364556802448
leaf_weight=319.48488481342793 1827.817391782999 3305.822559311986 676.61100476235151 18410.00809276849 1136.5267526060343 3485.1433093100786 650.54664543271065 208.85870416462421 336.28750741481781 970.07836516201496 858.49986389279366 7777.3533813878894 1308.3182209506631 899.17872425913811 1071.8578323870897 502.94960248470306 1112.238264337182 4310.0509351789951 197.09793969988823 592.26915249973536 351.69118663668633 280.44361715018749 574.43137343227863 695.03526422381401 302.8002538383007 7236.7229067534208 776.16400867700577 8408.0848124697804 15655.624591998756 379.94854554533958
leaf_count=2529 13781 26445 4496 146951 7495 27671 4431 1571 2600 6817 6476 61922 8728 7150 7705 3815 7357 32910 1302 4307 2558 2011 4209 5041 2024 56036 5702 65106 125470 2670
internal_value=0 0.0104073 0.000367273 0.0117493 -0.00624318 0.031025 -0.0115903 -0.070301 -0.136556 -0.0502118 -0.11987 0.00527897 -0.112486 -0.0699499 -0.151231 -0.095084 -0.182635 -0.0337466 -0.068114 -0.143323 -0.0736358 -0.113852 -0.125203 -0.0657659 -0.164889 -0.00767669 -0.0448165 -0.00507568 0.0427412 -0.127474
internal_weight=0 73818.4 49643.9 45095.7 26685.7 24174.5 5213.07 10799.5 2167.85 7684.99 3114.53 24517.8 4548.23 2168.06 2380.18 1727.93 1321.1 6334.97 2024.92 1268.88 1793.43 934.935 1224.98 1031.32 583.244 16740.5 1095.65 15644.8 18961.4 1350.03
internal_count=657286 577809 385768 353382 206431 192041 40126 79477 15136 57480 21997 191295 32386 15953 16433 12455 8928 47993 15083 8803 13069 6593 8640 7641 4035 129373 8231 121142 151915 9487
is_linear=0
shrinkage=0.05


Tree=2
num_leaves=31
num_cat=0
split_feature=29 0 1 0 1 1 22 26 1 0 11 8 1 0 1 0 0 1 11 0 11 8 22 4 11 4 22 1 13 11
split_gain=21270.5 6051.57 22248.8 8335.1 13831.8 5233.35 6367.58 3443.66 3323.74 3305.3 3091.37 3063.64 2842.07 6268.07 2532.04 1739.83 1549.4 2722.67 1458.59 1365.43 1019.48 1011.57 668.526 650.958 616.761 605.713 571.787 560.631 559.489 751.602
threshold=1.0000000180025095e-35 6.5000000000000009 0.65942028985507262 2.5000000000000004 0.49000000000000005 0.85357142857142865 125.02500000000002 1.5000000000000002 0.74342105263157909 6.5000000000000009 1.0000000180025095e-35 1.5000000000000002 0.74342105263157909 4.5000000000000009 0.85357142857142865 12.500000000000002 3.5000000000000004 0.65942028985507262 1.0000000180025095e-35 12.500000000000002 1.0000000180025095e-35 1.0000000180025095e-35 108.01500000000001 0.65686274509803932 1.0000000180025095e-35 0.7947368421052633 108.01500000000001 0.9110671936758894 5.6162816019403303 1.0000000180025095e-35
decision_type=2 2 2 2 2 2 2 2 2 2 2 2 2 2 2 2 2 2 2 2 2 2 2 2 2 2 2 2 2 2
left_child=1 2 3 4 7 -3 -7 28 11 -10 -6 16 13 20 25 26 17 -2 -14 21 -4 24 -12 -18 -8 -11 -16 -17 29 -1
right_child=8 5 12 -5 10 6 19 -9 9 14 22 -13 18 -15 15 27 23 -19 -20 -21 -22 -23 -24 -25 -26 -27 -28 -29 -30 -31
leaf_value=0.024552149271036588 -0.039131874692948584 0.045252442425846071 -0.16289272335643545 0.037880241526099319 -0.1689760891859228 0.028729825877942129 -0.12907386285210926 0.032646582724662795 -0.18103100814622961 -0.053934976728367681 -0.0065990218716031534 -0.11137668301480796 -0.16216172517391242 0.039074698547549497 -0.056715560002068732 0.0079417653345629467 -0.061390431359892944 -0.17983692939066476 -0.090492282805937976 -0.006061068668221252 -0.078040786854443392 -0.24607363930280757 -0.0857611049792356 -0.0025995589445601888 -0.060628380026408871 0.023106912075329358 -0.18275762610466281 -0.094784542820077644 -0.0047714093489664745 -0.066504860292788598
leaf_weight=313.80855732411146 2235.7069455832243 17005.37270052731 772.65267898142338 18313.826872386038 1348.4197806417942 3415.4757834970951 690.6843995153904 7990.0752468407154 1010.0628150105476 489.13676258921623 411.74794977903366 1464.4161217957735 1587.4562254548073 1003.8616566509008 103.70288264751434 238.21065278351307 549.51455023884773 406.28586530685425 1284.2212105989456 411.96237868070602 653.30509640276432 123.55379448831081 757.08522866666317 3288.6382069885731 628.74333755671978 533.26743070781231 679.94348138570786 300.19273862242699 15697.705615475774 815.66986766457558
leaf_count=2529 16335 140813 4587 150357 7951 27693 4267 65140 5914 3595 3164 9487 9555 8223 674 1747 4037 2486 8731 3131 4497 784 5171 25135 4388 3983 4058 2026 121122 5706
internal_value=0 0.0100222 0.00051792 0.0117779 -0.00571033 0.0317605 -0.011772 0.00561735 -0.063683 -0.105416 -0.117388 -0.0460615 -0.096436 -0.0566373 -0.072839 -0.118534 -0.0313012 -0.0607695 -0.130111 -0.0863472 -0.124018 -0.109268 -0.0578745 -0.0110167 -0.0964577 -0.0137513 -0.166078 -0.0493344 -0.00721698 -0.041206
internal_weight=0 73225.6 50949.8 45648.3 27334.5 22275.8 5270.42 24817.3 11299.1 3354.52 2517.25 7944.56 5301.5 2429.82 2344.45 1322.05 6480.15 2641.99 2871.68 1854.94 1425.96 1442.98 1168.83 3838.15 1319.43 1022.4 783.646 538.403 16827.2 1129.48
internal_count=657286 577809 396733 361140 210783 181076 40263 194497 79477 21997 16286 57480 35593 17307 16083 8505 47993 18821 18286 12570 9084 9439 8335 29172 8655 7578 4732 3773 129357 8235
is_linear=0
shrinkage=0.05


Tree=3
num_leaves=31
num_cat=0
split_feature=29 0 1 0 1 1 22 26 1 4 0 11 1 0 1 0 0 11 8 11 8 0 1 1 0 21 4 8 24 13
split_gain=18568 5630.68 19079.2 7760.94 11636.3 4941.01 5502.81 3180.59 2657.07 2508.93 2458.15 2319.82 2159.86 5203.33 2027.27 1306.37 1088.64 1077.93 953.601 760.312 696.757 612.398 1570.83 571.954 665.751 556.587 530.227 519.585 500.481 486.415
threshold=1.0000000180025095e-35 6.5000000000000009 0.65942028985507262 2.5000000000000004 0.49000000000000005 0.85357142857142865 125.02500000000002 1.5000000000000002 0.74342105263157909 0.65686274509803932 6.5000000000000009 1.0000000180025095e-35 0.74342105263157909 4.5000000000000009 0.85357142857142865 12.500000000000002 12.500000000000002 1.0000000180025095e-35 2.5000000000000004 1.0000000180025095e-35 1.0000000180025095e-35 3.5000000000000004 0.49000000000000005 0.60555555555555574 4.5000000000000009 75.089375000000018 0.7947368421052633 1.0000000180025095e-35 1.0000000180025095e-35 5.6162816019403303
decision_type=2 2 2 2 2 2 2 2 2 2 2 2 2 2 2 2 2 2 2 2 2 2 2 2 2 2 2 2 2 2
left_child=1 2 3 4 7 -3 -7 29 9 18 -10 -6 13 19 26 27 20 -14 23 -4 -8 22 -11 -2 -25 -13 -12 -16 -23 -1
right_child=8 5 12 -5 11 6 16 -9 10 21 14 25 17 -15 15 -17 -18 -19 -20 -21 -22 28 -24 24 -26 -27 -28 -29 -30 -31
leaf_value=-0.038069332466479762 -0.048760922289241129 0.044460162948259149 -0.14131405471960196 0.037008417452950422 -0.14624169569417372 0.027874982306710677 -0.086372724186434865 0.031768866222109775 -0.15587038925918389 -0.0020178095625010251 -0.049380678277377243 -0.00099198117341808747 -0.14056030807552236 0.038208073508128493 -0.092616502940677567 -0.045357752231732273 -0.00573344589519205 -0.081101248434267886 -0.12072292380255474 -0.07045714835530055 -0.20262565982371081 -0.04348374351836589 -0.14096718909136616 -0.15268237114606642 -0.039960334975089329 -0.075011093224521 0.02231059423650943 -0.17338899168627003 0.0015646691458416928 -0.0045174736970973409
leaf_weight=1159.7692452594638 2345.2108133435249 16456.984067924321 844.04167491197586 17820.641663394868 1476.4290278404951 3346.0010629668832 1397.3953316360712 7805.0484672114253 1111.4934297353029 531.71715366840363 507.04859083890915 362.05873998999596 1735.5654423683882 976.01318173855543 314.25907374918461 555.37025436758995 413.68228778243065 1359.1931455731392 813.84172308444977 686.52434454858303 141.98409456014633 788.40349280834198 329.41805572807789 315.36086936295033 224.05125457048416 850.72557723522186 524.90273928642273 543.32195183634758 2828.5207420289516 15749.721575409174
leaf_count=8235 16275 140813 4587 150357 7951 27693 8655 65140 5914 3794 3595 2784 9555 8223 1888 3773 3131 8731 4924 4497 784 5721 2152 1729 1502 5551 3983 2844 21383 121122
internal_value=0 0.00965333 0.000541938 0.0113231 -0.00537998 0.0309391 -0.0110526 0.00536757 -0.0581401 -0.0424477 -0.0942185 -0.104153 -0.0865039 -0.0520047 -0.0661906 -0.105101 -0.0777437 -0.114446 -0.0729241 -0.109532 -0.0970953 -0.0172769 -0.0551714 -0.0594386 -0.105862 -0.0529138 -0.0129149 -0.14379 -0.00825481 -0.00681869
internal_weight=0 72581.8 50825.7 45224.4 27403.8 21756 5299.06 24714.5 11732.9 8176.52 3556.4 2689.21 5601.34 2506.58 2444.9 1412.95 1953.06 3094.76 3698.46 1530.57 1539.38 4478.06 861.135 2884.62 539.412 1212.78 1031.95 857.581 3616.92 16909.5
internal_count=657286 577809 396733 361140 210783 181076 40263 194497 79477 57480 21997 16286 35593 17307 16083 8505 12570 18286 24430 9084 9439 33050 5946 19506 3231 8335 7578 4732 27104 129357
is_linear=0
shrinkage=0.05


Tree=4
num_leaves=31
num_cat=0
split_feature=29 0 8 11 13 19 19 13 19 21 2 0 24 2 19 0 2 4 3 8 3 26 26 13 13 2 4 13 8 24
split_gain=16305.1 5239.2 2213.16 1962.02 1341.09 1263.03 1063.87 1174.3 760.731 703.677 657.37 483.805 340.792 334.295 329.303 274.452 271.434 264.526 241.766 230.625 227.28 227.207 226.888 224.184 215.598 205.43 202.177 196.025 191.406 271.678
threshold=1.0000000180025095e-35 6.5000000000000009 1.5000000000000002 1.0000000180025095e-35 6.3551648718440621 0.9110671936758894 0.93541666666666679 5.9273738253862183 0.60263157894736852 174.25833333333335 17.500000000000004 2.5000000000000004 1.0000000180025095e-35 41.500000000000007 0.9110671936758894 9.5000000000000018 14.500000000000002 0.67543859649122817 1.1802083333333335 1.0000000180025095e-35 2.1669047619047626 27.500000000000004 18.500000000000004 6.264170455118891 7.0261802727222822 10.500000000000002 0.82085561497326209 5.6162816019403303 1.0000000180025095e-35 1.0000000180025095e-35
decision_type=2 2 2 2 2 2 2 2 2 2 8 2 2 10 2 2 8 2 2 2 2 2 2 2 2 10 2 2 2 2
left_child=1 3 8 4 -1 17 7 10 12 -8 27 16 -2 23 -13 -7 -6 -3 -4 -14 28 -16 -11 25 -25 -9 -21 -5 -10 -30
right_child=2 5 18 6 11 15 9 13 20 22 -12 14 19 -15 21 -17 -18 -19 -20 26 -22 -23 -24 24 -26 -27 -28 -29 29 -31
leaf_value=0.012444334643434054 -0.030185877577608933 -0.046425648696687735 -0.10568688940724874 -0.07745578523024807 -0.012437337635014707 0.028791146103779815 0.029870056325005091 -0.0316751283493443 -0.026895497077683784 0.013070316775373415 0.0093044484519582311 -0.040562818640314358 -0.054576732141289525 -0.030629140056117228 -0.00080826619923400882 0.04154542905364636 -0.028992093060235192 0.0081835330154934934 -0.075395666788272253 -0.094015622089757347 -0.010689556565243272 -0.02371264663871361 -0.006536092816538587 0.021517527977055226 0.0024593039249187505 0.0052026996762568577 -0.045620153540854476 -0.037943804165375787 -0.017193655804184294 -0.075304430995411009
leaf_weight=5501.2466808408499 1040.2250323146582 235.45222437381744 1593.1378554850817 663.77028547227383 3968.176694393158 7411.550547324121 7243.2853746712208 590.38394600152969 2194.2770277261734 6425.2670772522688 493.64790306985378 676.69721615314484 2724.4551287442446 594.52364687621593 7098.7432783916593 9788.4723362997174 6584.7822278365493 3812.4311967864633 1123.0860392451286 833.65605315566063 1436.9107190668583 1277.6086668893695 1915.4314076825976 3240.6445126235485 2737.5150651559234 1047.946749612689 291.18258959054947 595.53612126410007 312.93532635271549 562.96543027460575
leaf_count=43156 7293 1932 9086 4343 30241 63067 59908 4557 14991 52112 3598 5138 18412 4746 55963 84312 49436 31765 6872 4962 10138 9547 15130 25025 21142 8094 1928 4597 2298 3497
internal_value=0 0.00929647 -0.0534105 0.0005552 -0.00937111 0.0301357 0.0103103 -0.00245 -0.0419197 0.0184688 -0.0395998 -0.0154923 -0.0555786 0.00548105 -0.00701221 0.0360496 -0.0227671 0.00500709 -0.0931623 -0.0624406 -0.0271018 -0.00430177 0.00856773 0.00829972 0.0127904 -0.00808648 -0.0814877 -0.0587703 -0.0347832 -0.054543
internal_weight=0 71903.1 12112.8 50655.2 25107.3 21247.9 25548 9963.97 9396.61 15584 1752.95 19606 4889.52 8211.01 9053.05 17200 10553 4047.88 2716.22 3849.29 4507.09 8376.35 8340.7 7616.49 5978.16 1638.33 1124.84 1259.31 3070.18 875.901
internal_count=657286 577809 79477 396733 193481 181076 203252 76102 63519 127150 12538 150325 32595 63564 70648 147379 79677 33697 15958 25302 30924 65510 67242 58818 46167 12651 6890 8940 20786 5795
is_linear=0
shrinkage=0.05


Tree=5
num_leaves=31
num_cat=0
split_feature=29 0 1 0 1 1 22 26 1 4 0 1 0 11 1 22 0 11 8 11 11 0 1 22 1 0 21 24 4 1
split_gain=14425.4 4812.69 16746.7 7075.09 9845.58 4764.93 4859.25 2886.71 2117.31 1824.7 1791.07 1643.43 4409.52 1622.46 1622.25 1115.82 926.707 788.81 645.148 552.722 531.685 496.546 1202.27 476.995 447.064 493.948 445.527 444.498 429.489 425.306
threshold=1.0000000180025095e-35 6.5000000000000009 0.65942028985507262 2.5000000000000004 0.49000000000000005 0.85357142857142865 125.02500000000002 3.5000000000000004 0.74342105263157909 0.65686274509803932 6.5000000000000009 0.74342105263157909 4.5000000000000009 1.0000000180025095e-35 0.85357142857142865 125.02500000000002 12.500000000000002 1.0000000180025095e-35 2.5000000000000004 1.0000000180025095e-35 1.0000000180025095e-35 3.5000000000000004 0.49000000000000005 104.05500000000002 0.60555555555555574 4.5000000000000009 75.089375000000018 1.0000000180025095e-35 0.80625000000000013 0.91833333333333345
decision_type=2 2 2 2 2 2 2 2 2 2 2 2 2 2 2 2 2 2 2 2 2 2 2 2 2 2 2 2 2 2
left_child=1 2 3 4 7 28 23 -1 9 18 -10 12 19 -6 -12 -16 20 -13 24 -4 -8 22 -11 -7 -2 -26 -15 -23 -3 -18
right_child=8 5 11 -5 13 6 16 -9 10 21 14 17 -14 26 15 -17 29 -19 -20 -21 -22 27 -24 -25 25 -27 -28 -29 -30 -31
leaf_value=-0.0060556108087140171 -0.04021599675440593 -0.0026541916754160982 -0.12525371556078363 0.036112894016286506 -0.12669939757806362 0.034703050513269988 -0.11648084160269767 0.030930577434590614 -0.13016600868457076 -0.00073974837699582023 -0.0097012967186111913 -0.12383808593864531 0.037349387884304634 -0.0027175101168888829 -0.039400349171865939 -0.12574675678403854 0.046025947320408961 -0.074260485882515534 -0.097142974603479315 -0.066421584220075033 -0.058365311086798155 -0.038481246156406489 -0.11819911012797171 -0.016934581783851665 -0.1269284955246561 -0.032696042527194082 -0.069269023134060165 0.0030256199884112329 0.044507822021403999 -0.056280094460125552
leaf_weight=17081.045161910355 2496.8834222406149 498.66556579619646 896.03425355255604 17249.930914886296 1587.0870561748743 2653.006791934371 883.77024263143539 7632.9458131417632 1223.3600434660912 548.48039096593857 1074.0595051795244 1868.5866140425205 935.72539978474379 352.60430066287518 641.41719032824039 897.92184686660767 199.68469028174877 1405.9957874566317 918.59403616189957 720.03295724093914 709.52284529805183 829.34492781758308 361.40252596139908 537.89296513050795 345.55081656575203 232.72489573061466 876.83481097221375 2902.0786296874285 15109.638786695898 206.7886571586132
leaf_count=129533 16266 4314 4537 150349 7890 22956 4834 65170 5896 3799 7570 9573 8132 2766 3964 4597 1540 8664 4931 4557 4548 5721 2118 4649 1710 1464 5508 21337 136775 1594
internal_value=0 0.0089521 0.000630366 0.0110053 -0.00472652 0.0292 -0.0122995 0.00536762 -0.0493287 -0.0355963 -0.080235 -0.0791093 -0.0490277 -0.0932989 -0.0568618 -0.0897676 -0.0734092 -0.102551 -0.060374 -0.0990413 -0.0906009 -0.0142755 -0.0473942 0.0259984 -0.0493906 -0.089005 -0.050182 -0.00619968 0.0430011 -0.00602108
internal_weight=0 71405.8 50606.8 44780.4 27530.5 20799 5190.67 24714 12471.8 8635.06 3836.76 5826.38 2551.79 2816.53 2613.4 1539.34 1999.77 3274.58 3993.75 1616.07 1593.29 4641.31 909.883 3190.9 3075.16 578.276 1229.44 3731.42 15608.3 406.473
internal_count=657262 577889 396679 361216 210867 181210 40121 194703 79373 57346 22027 35463 17226 16164 16131 8561 12516 18237 24371 9094 9382 32975 5917 27605 19440 3174 8274 27058 141089 3134
is_linear=0
shrinkage=0.05


Tree=6
num_leaves=31
num_cat=0
split_feature=29 0 1 0 1 1 22 26 1 8 0 1 11 1 0 0 22 0 1 11 1 8 8 11 11 4 0 1 8 4
split_gain=12771.5 4476.74 14621 6588.2 8496.06 4488.66 4272.14 2666.23 1790.16 1617.45 1468.64 1362.03 1326.02 1312.37 3765.97 1214.01 946.059 823.406 1400.92 643.362 636.992 758.512 549.382 477.398 451.456 445.793 444.973 1499.78 437.181 413.828
threshold=1.0000000180025095e-35 6.5000000000000009 0.65942028985507262 2.5000000000000004 0.49000000000000005 0.85357142857142865 115.01500000000001 3.5000000000000004 0.74342105263157909 1.5000000000000002 6.5000000000000009 0.85357142857142865 1.0000000180025095e-35 0.74342105263157909 4.5000000000000009 12.500000000000002 105.07000000000001 3.5000000000000004 0.65942028985507262 1.0000000180025095e-35 0.91833333333333345 1.0000000180025095e-35 1.0000000180025095e-35 1.0000000180025095e-35 1.0000000180025095e-35 0.57518796992481214 2.5000000000000004 0.49000000000000005 1.0000000180025095e-35 0.80625000000000013
decision_type=2 2 2 2 2 2 2 2 2 2 2 2 2 2 2 2 2 2 2 2 2 2 2 2 2 2 2 2 2 2
left_child=1 2 3 4 7 29 -7 -1 9 17 -10 -12 -6 14 24 22 -13 18 26 -15 -17 -22 23 -8 -4 -19 27 -2 -18 -3
right_child=8 5 13 -5 12 6 15 -9 10 -11 11 16 -14 19 -16 20 28 25 -20 -21 21 -23 -24 -25 -26 -27 -28 -29 -30 -31
leaf_value=-0.0057283743792211992 -0.016070233599389066 -0.0025164541190810684 -0.11254773136944587 0.035260437457818088 -0.11403537558991445 0.030124242971486311 -0.098660819005420952 0.030075162394972134 -0.11752916259533347 -0.075779559150505577 -0.0091565615135673385 -0.023254942940943647 -0.046220449620774706 -0.11121380083706776 0.036500763436678386 0.046774304638908332 -0.06523393059467035 -0.052837641720157882 -0.11700083416962447 -0.067501623014431231 -0.028107923646441921 -0.29867805406039027 -0.16755695580926766 -0.04375519922587201 -0.060587924682108718 -0.0014447886569912171 -0.0056580612515545192 -0.14343076151043019 -0.13035014380823379 0.043759295064562755
leaf_weight=17152.09328699857 923.56623223423958 499.63620625436306 945.92887507379055 16795.288171090186 1672.762621358037 2817.9797047078609 845.4872558042407 7461.9496400132775 1285.4066514521837 1775.167461052537 1080.8782911002636 482.61533352732658 1266.7018053978682 1973.7074151039124 910.25967290997505 329.69171246141195 401.97146993875504 479.01373237371445 517.6051619052887 1467.7396896630526 273.7229345664382 28.609925098717213 169.84606227278709 744.52853336185217 749.09664937853813 3542.4959193617105 1256.6175103634596 308.31853614747524 718.51010014116764 14612.380538970232
leaf_count=129533 6115 4314 4537 150349 7890 24937 4543 65170 5896 9441 7570 2989 8274 9573 8132 2706 2183 3073 2463 8664 2126 214 834 4761 4557 26047 8303 1904 3389 136775
internal_value=0 0.00862109 0.000632433 0.0105769 -0.00446897 0.0284319 -0.0115897 0.00512576 -0.0457054 -0.0331354 -0.0735815 -0.0525342 -0.0848119 -0.0723038 -0.0455317 -0.0607346 -0.0817812 -0.0223636 -0.042159 -0.092571 -0.001294 -0.0537121 -0.0820816 -0.0729511 -0.0895847 -0.00756634 -0.026592 -0.0479463 -0.10699 0.0422293
internal_weight=0 70717.4 50395.5 44348.8 27553.5 20321.9 5209.87 24614 12772.2 8802.78 3969.38 2683.98 2939.46 6046.73 2605.29 2391.89 1603.1 7027.62 3006.11 3441.45 632.025 302.333 1759.86 1590.02 1695.03 4021.51 2488.5 1231.88 1120.48 15112
internal_count=657262 577889 396679 361216 210867 181210 40121 194703 79373 57346 22027 16131 16164 35463 17226 15184 8561 47905 18785 18237 5046 2340 10138 9304 9094 29120 16322 8019 5572 141089
is_linear=0
shrinkage=0.05


Tree=7
num_leaves=31
num_cat=0
split_feature=29 0 11 8 13 19 19 13 12 21 19 0 19 2 2 24 13 2 26 13 4 12 4 26 13 17 2 8 12 8
split_gain=11348.7 4167.59 1663.11 1454.37 1159.9 1040.26 1005.28 1045.74 616.974 615.129 568.963 455.748 360.506 349.177 295.616 240.29 217.326 210.416 205.389 199.94 194.39 189.983 186.898 184.735 168.543 164.84 163.697 153.078 147.076 138.13
threshold=1.0000000180025095e-35 7.5000000000000009 1.0000000180025095e-35 1.5000000000000002 6.3551648718440621 0.93541666666666679 0.9110671936758894 5.9273738253862183 2.5000000000000004 173.24264705882356 0.60263157894736852 2.5000000000000004 0.84412955465587058 19.500000000000004 35.500000000000007 1.0000000180025095e-35 6.264170455118891 14.500000000000002 19.500000000000004 7.111304166273448 0.90238095238095251 2.5000000000000004 0.8377192982456142 23.500000000000004 5.6162816019403303 11.500000000000002 10.500000000000002 1.0000000180025095e-35 2.5000000000000004 1.0000000180025095e-35
decision_type=2 2 2 2 2 2 2 2 2 2 2 2 2 10 8 2 2 8 2 2 2 2 2 2 2 2 10 2 2 2
left_child=1 2 4 10 -1 20 7 8 13 -8 15 17 -13 24 16 28 26 -6 -11 -18 29 -5 -12 -14 -4 27 -9 -17 -2 -3
right_child=3 5 6 21 11 -7 9 14 -10 18 22 12 23 -15 -16 25 19 -19 -20 -21 -22 -23 -24 -25 -26 -27 -28 -29 -30 -31
leaf_value=0.012488156626951866 -0.013863073288259857 0.0058058085205362799 -0.057317540754617383 -0.062371730642218237 -0.01094287174685462 0.037060888672406804 0.028639696388773568 -0.027934706313833182 -0.11234496724555748 0.013276413793283211 -0.030276425743705954 -0.037860368078629913 0.00051846018845183529 0.013005470292452548 -0.021891032940611357 -0.04638574989677241 0.020924150455444018 -0.025378331068524836 -0.0048213118894516729 0.0022467586829589838 0.01886528825516947 -0.087797035924988664 -0.010375454349549472 -0.018894562755028349 -0.019304617836937897 -0.01269169071129443 0.0047275774644437735 -0.068200372904597392 -0.057295129560256369 -0.022300228006849721
leaf_weight=5788.0172309651971 848.21039941906929 1312.893059335649 616.98351800441742 1783.0689214318991 4038.6363038495183 12748.880692571402 7436.4907754361629 608.95111194252968 231.87307500839233 6946.2923960611224 2457.5229156017303 780.07373816519976 7924.208529099822 437.5397417396307 881.34562009572983 2757.8808951973915 3459.2164649441838 6732.7927712798119 2024.6696964427829 2446.0859418958426 1900.926790304482 1249.6362905204296 2269.0469553768635 1449.6542283669114 552.9286811798811 274.99750252068043 1036.6298295408487 1135.2093553841114 253.08032062649727 655.36220575124025
leaf_count=46707 5639 11441 3835 9354 30312 118471 65020 4562 1596 58752 15787 5827 64250 3229 7116 17128 26864 49473 16274 18766 17086 6592 15072 10857 4134 1835 7968 6282 1684 5349
internal_value=0 0.00830266 0.00149683 -0.0425195 -0.00732201 0.0301692 0.010327 -0.00193974 -0.0360988 0.0180064 -0.033318 -0.0128016 -0.00520154 -0.0251004 0.00551138 -0.0446158 0.00870982 -0.0199659 0.00919191 0.0131876 0.00746132 -0.0728483 -0.0207227 -0.00248374 -0.0393517 -0.0501041 -0.00735918 -0.0527468 -0.0238439 -0.00355255
internal_weight=0 70010.5 53392.4 13028.7 26713.4 16618.1 26679 10271.6 1839.33 16407.5 9995.95 20925.4 10153.9 1607.45 8432.23 5269.38 7550.88 10771.4 8970.96 5905.3 3869.18 3032.71 4726.57 9373.86 1169.91 4168.09 1645.58 3893.09 1101.29 1968.26
internal_count=657262 577889 425542 79373 207426 152347 218116 78070 12794 140046 63427 160719 80934 11198 65276 32568 58160 79785 75026 45630 33876 15946 30859 75107 7969 25245 12530 23410 7323 16790
is_linear=0
shrinkage=0.05


Tree=8
num_leaves=31
num_cat=0
split_feature=29 1 0 0 1 26 1 22 1 13 4 0 1 11 3 1 8 0 0 0 19 11 0 1 11 22 8 8 0 1
split_gain=10064.6 3944.04 11620.7 8541.85 7391.6 2422.54 2368.38 3046.48 1520.69 1297.97 1258.94 1228.63 1154.48 1007.73 963.757 2917.84 942.474 819.385 735.515 685.522 491.139 467.588 449.311 446.814 427.636 414.164 390.025 365.707 365.081 827.184
threshold=1.0000000180025095e-35 0.65108695652173931 7.5000000000000009 2.5000000000000004 0.49000000000000005 3.5000000000000004 0.86811594202898557 105.07000000000001 0.74342105263157909 6.3551648718440621 0.65686274509803932 6.5000000000000009 0.85357142857142865 1.0000000180025095e-35 1.0002117647058826 0.7958333333333335 1.0000000180025095e-35 12.500000000000002 14.500000000000002 4.5000000000000009 0.90238095238095251 1.0000000180025095e-35 6.5000000000000009 0.91833333333333345 1.0000000180025095e-35 85.050000000000011 1.0000000180025095e-35 5.5000000000000009 3.5000000000000004 0.49000000000000005
decision_type=2 2 2 2 2 2 2 2 2 2 2 2 2 2 2 2 2 2 2 2 2 2 2 2 2 2 2 2 2 2
left_child=1 3 9 4 5 -1 -4 -8 10 21 22 -10 27 -6 -11 19 18 -14 24 -16 -5 -3 -2 -19 -9 -25 -27 -13 29 -12
right_child=8 2 6 20 13 -7 7 16 11 14 28 12 17 -15 15 -17 -18 23 -20 -21 -22 -23 -24 25 -26 26 -28 -29 -30 -31
leaf_value=-0.0051367545025850572 -0.0390343394082244 -0.05196128080332775 0.041342560833092769 0.014575390007998196 -0.10219685870260853 0.029226451525684025 0.032005100180244592 -0.085385604703626383 -0.10373769352557852 -0.095629258194382102 0.001447492080990376 0.0043915709321131662 -0.099357419395255053 -0.043969429075055293 -0.062416320867841914 -0.092347682729887443 -0.15496902068922269 0.020519726486895377 0.023432203624530537 0.031598747783558673 0.039001993791505006 -0.0037292109747769607 -0.077658277146524998 -0.0042961346553830387 -0.029356277408061654 -0.030087911115457496 -0.16972154700536435 -0.08294665984245056 -0.0036131084312653636 -0.09180152801550491
leaf_weight=17274.996293030679 3369.1401958316565 927.77157192677259 6229.4067215695977 2272.123098410666 1754.7177429646254 7294.6487188413739 2258.712788388133 699.57152885198593 1352.4385638833046 2490.6461301296949 564.12140265107155 980.25598773360252 1037.9804736822844 1288.8614281117916 250.14367982745171 1818.4129230752587 205.20743521302938 276.00885024666786 346.92170342057943 862.26808047294617 21823.772708289325 1096.2291888967156 969.67504748702049 163.75558014214039 663.58594927936792 86.382359206676483 118.76818208396435 136.5537830889225 3845.8315719664097 411.15991167724133
leaf_count=129533 19466 5592 61208 20557 7890 65170 20987 3938 5896 12964 3799 6752 4777 8274 1267 9343 1102 1734 2973 8024 206739 7881 4905 949 4447 492 609 818 27058 2118
internal_value=0 0.00794915 -0.0123158 0.0149442 -0.00403929 0.00506557 0.0218144 -0.00732992 -0.0395046 -0.0600053 -0.0281268 -0.0646047 -0.045701 -0.0775393 -0.0727609 -0.0533272 -0.053718 -0.0718568 -0.041568 0.0104579 0.0366987 -0.0258381 -0.0476663 -0.0275951 -0.0581105 -0.0635937 -0.110926 -0.00628739 -0.010542 -0.0378645
internal_weight=0 69558 17848.9 51709.1 27613.2 24569.6 10403.4 4174 13312.1 7445.47 9159.93 4152.14 2799.71 3043.58 5421.47 2930.82 1915.29 1682.9 1710.08 1112.41 24095.9 2024 4338.82 644.915 1363.16 368.906 205.151 1116.81 4821.11 975.281
internal_count=657262 577889 139726 438163 210867 194703 94655 33447 79373 45071 57346 22027 16131 16164 31598 18634 12460 8561 11358 9291 227296 13473 24371 3784 8385 2050 1101 7570 32975 5917
is_linear=0
shrinkage=0.05


Tree=9
num_leaves=31
num_cat=0
split_feature=29 0 1 19 1 22 1 0 1 11 8 0 0 1 1 22 0 1 8 13 11 0 1 11 19 0 1 4 0 13
split_gain=8982.18 3669.53 11473.1 5362.41 4080.92 3420.85 3119.67 6602.84 1330.82 1112.32 1100.19 1056.36 1032.72 999.835 712.305 705.491 608.892 1115.19 590.642 503.953 475.59 423.54 2072.2 414.708 394.495 360.837 1077.87 346.971 332.288 328.988
threshold=1.0000000180025095e-35 6.5000000000000009 0.49000000000000005 0.81365740740740755 0.85357142857142865 105.07000000000001 0.74342105263157909 3.5000000000000004 0.74342105263157909 1.0000000180025095e-35 1.5000000000000002 6.5000000000000009 12.500000000000002 0.85357142857142865 0.91833333333333345 105.07000000000001 3.5000000000000004 0.65942028985507262 1.0000000180025095e-35 6.3551648718440621 1.0000000180025095e-35 2.5000000000000004 0.65942028985507262 1.0000000180025095e-35 0.9110671936758894 2.5000000000000004 0.49000000000000005 0.80625000000000013 11.500000000000002 5.6162816019403303
decision_type=2 2 2 2 2 2 2 2 2 2 2 2 2 2 2 2 2 2 2 2 2 2 2 2 2 2 2 2 2 2
left_child=1 2 3 29 24 -6 7 9 10 21 16 -10 23 27 -14 -15 17 25 -16 -11 -8 -4 -23 -7 -3 26 -2 28 -13 -1
right_child=8 4 6 -5 5 12 20 -9 11 19 -12 13 14 15 18 -17 -18 -19 -20 -21 -22 22 -24 -25 -26 -27 -28 -29 -30 -31
leaf_value=-0.029232343325526922 -0.011496821104975481 0.023059133686803023 -0.0940015269675126 0.03366318287121569 0.031411042111632786 -0.090382827808642041 -0.093773461004920552 0.025851073545563825 -0.095906918302843147 0.0018725520311091708 -0.059813558678180612 -0.00050774155824806434 0.045752163379207178 -0.017198501753377678 -0.027820236825054485 -0.087335704808876161 -0.0048626683457306738 -0.098126062128331817 -0.22349145087326008 -0.047868706537912795 -0.057454828068645818 0.041131791380173713 -0.094845441941952408 -0.043881630999777432 0.044419188257948945 -0.0017635395739578959 -0.11352746999154784 0.024038876638266163 -0.075911923594424086 -0.0027847114730308684
leaf_weight=1265.8073444962502 968.86054217815399 2674.4221627563238 1810.7609239816666 18717.208077087998 2418.0035640820861 1082.6970672979951 2124.8027431517839 3898.6928403452039 1388.71423381567 718.28704509139061 1941.0133372098207 352.49193340539932 392.84336840361357 508.84439833462238 332.61773037165403 1213.7836882770061 4152.2050280869007 557.83565311133862 43.624764233827591 1749.3876753747463 1565.5273780524731 386.60737729817629 1017.7918655723333 860.54829051345587 11273.221542268991 1314.7580449879169 353.21810181438923 518.51943330466747 249.53367395699024 16543.000259853899
leaf_count=8340 6115 25273 7890 175672 23006 5393 9573 36809 5896 5153 9441 2223 3491 2989 2622 5572 29120 2463 260 11009 8664 3626 4537 5349 115816 8303 1904 3817 1530 125406
internal_value=0 0.00765258 0.000509213 0.0149759 0.0262984 -0.0118311 -0.0393052 -0.0242608 -0.0369228 -0.05864 -0.0263338 -0.0601628 -0.0503808 -0.042704 -0.00133903 -0.066618 -0.0174886 -0.0338988 -0.050508 -0.0333901 -0.0783662 -0.0780196 -0.0574132 -0.0697902 0.0403235 -0.0203112 -0.0387562 -0.0059408 -0.031762 -0.00466455
internal_weight=0 68875.9 49797.9 36526 19078 5130.33 13271.9 9581.53 13519.8 5682.83 9287.89 4231.89 2712.33 2843.17 769.086 1722.63 7346.88 3194.67 376.242 2467.67 3690.33 3215.16 1404.4 1943.25 13947.6 2636.84 1322.08 1120.55 602.026 17808.8
internal_count=657262 577889 396679 309418 181210 40121 87261 69024 79373 32215 57346 22027 17115 16131 6373 8561 47905 18785 2882 16162 18237 16053 8163 10742 141089 16322 8019 7570 3753 133746
is_linear=0
shrinkage=0.05


Tree=10
num_leaves=31
num_cat=0
split_feature=29 0 1 0 1 1 22 26 1 4 13 0 1 3 1 0 22 8 0 0 3 19 1 12 2 22 4 4 8 8
split_gain=7990.83 3470.08 10183.4 5828.39 5620.05 2684.45 2370.88 2031.3 1164.1 1043.38 1018.94 938.833 856.076 801.707 2104.97 991.455 775.855 738.549 642.098 527.346 423.361 411.673 373.287 356.433 348.593 321.69 320.929 306.539 302.535 299.729
threshold=1.0000000180025095e-35 7.5000000000000009 0.65942028985507262 2.5000000000000004 0.49000000000000005 0.86811594202898557 102.54000000000001 3.5000000000000004 0.74342105263157909 0.62828947368421062 6.0527143834046244 6.5000000000000009 0.85357142857142865 0.90010769230769239 0.7958333333333335 4.5000000000000009 108.01500000000001 1.0000000180025095e-35 12.500000000000002 14.500000000000002 0.51564621212121231 0.85092592592592597 0.9110671936758894 2.5000000000000004 65.500000000000014 85.050000000000011 0.7947368421052633 0.80625000000000013 1.0000000180025095e-35 1.0000000180025095e-35
decision_type=2 2 2 2 2 2 2 2 2 2 2 2 2 2 2 2 2 2 2 2 2 2 2 2 10 2 2 2 2 2
left_child=1 2 3 4 7 27 -7 -1 9 23 -4 -10 26 -12 15 24 -6 19 28 -8 -18 -5 -20 -2 -15 -24 -13 -3 -14 -27
right_child=8 5 10 21 16 6 17 -9 11 -11 13 12 18 14 -16 -17 20 -19 22 -21 -22 -23 25 -25 -26 29 -28 -29 -30 -31
leaf_value=-0.0047916159219145143 -0.033108804594863629 -0.00066566019660040132 -0.011956243776212065 0.0022758140873890085 -0.01339399127347542 0.031190031971849233 -0.046922785028311854 0.027172793708969519 -0.089319765258599568 -0.008710068852860341 -0.080195307787421344 -0.030809847533462588 -0.050543769992491619 0.019865027442190035 -0.074905022001690996 0.031242112270347802 -0.081457482819870447 -0.12916582339260627 0.020598242386016978 0.02064417427338305 0.020251774088034729 0.035057875540673702 -0.0013839979143884379 -0.064266092978898556 -0.082180505236502777 -0.024785278916765959 0.022627546773912433 0.042409194612542542 -0.10526916369185753 -0.14312458207815898
leaf_weight=17393.998023733497 3200.8436913043261 429.27353996038437 1342.3243245407939 1017.4201416745782 577.4559892565012 2104.3856206163764 1475.9058083072305 6958.6860603913665 1417.8507911413908 4922.4737554043531 2762.223541200161 596.38499175012112 399.11833202838898 109.96966689825058 2232.3441878184676 975.44700489193201 2540.1851254552603 227.74992364645004 283.94733189046383 359.02807357162237 106.60663606226444 16309.965380132198 161.13055840134621 1286.9736347198486 350.19741569459438 91.085492447018623 531.25433884561062 10912.582927331328 687.67336210608482 129.69434252381325
leaf_count=129576 17679 3852 9054 9152 3798 20524 8600 65170 5900 33157 13550 3623 1899 557 10818 9481 11894 1122 1755 3188 576 160459 923 6607 1654 495 3966 114863 2858 605
internal_value=0 0.00738192 0.0012616 0.0104078 -0.00387102 0.0281699 -0.00614903 0.00434209 -0.0344542 -0.0246071 -0.0515793 -0.0560134 -0.0396181 -0.0598507 -0.0445298 0.0027028 -0.0659045 -0.044243 -0.0614829 -0.0337025 -0.0773609 0.033133 -0.022819 -0.0420438 -0.0577939 -0.0550994 -0.00563438 0.0407789 -0.0851716 -0.0943022
internal_weight=0 68185.7 52676.8 44904.3 27576.9 15508.9 4167.07 24352.7 13708.4 9410.29 7772.51 4298.14 2880.29 6430.18 3667.96 1435.61 3224.25 2062.68 1752.65 1834.93 2646.79 17327.4 665.858 4487.82 460.167 381.91 1127.64 11341.9 1086.79 220.78
internal_count=657355 577888 425739 380625 211014 152149 33434 194746 79467 57443 45114 22024 16124 36060 22510 11692 16268 12910 8535 11788 12470 169611 3778 24286 2211 2023 7589 118715 4757 1100
is_linear=0
shrinkage=0.05


Tree=11
num_leaves=31
num_cat=0
split_feature=29 0 1 19 1 22 1 0 1 11 4 0 1 0 1 22 11 13 8 19 8 0 3 1 0 4 8 11 13 11
split_gain=7158.99 3235.58 9191.5 4696.05 3578.67 2689.51 2301.13 5107.55 1040.96 953.004 909.423 825.158 755.462 736.003 606.764 575.589 422.227 375.155 373.269 372.42 347.524 334.223 315.562 1317.67 298.592 300.795 297.892 291.046 283.928 481.902
threshold=1.0000000180025095e-35 6.5000000000000009 0.49000000000000005 0.81365740740740755 0.85357142857142865 104.05500000000002 0.74342105263157909 3.5000000000000004 0.74342105263157909 1.0000000180025095e-35 0.62828947368421062 6.5000000000000009 0.85357142857142865 12.500000000000002 0.91833333333333345 125.02500000000002 1.0000000180025095e-35 6.3551648718440621 1.0000000180025095e-35 0.9110671936758894 1.0000000180025095e-35 6.5000000000000009 0.50025000000000008 0.65942028985507262 9.5000000000000018 0.7947368421052633 1.0000000180025095e-35 1.0000000180025095e-35 5.6162816019403303 1.0000000180025095e-35
decision_type=2 2 2 2 2 2 2 2 2 2 2 2 2 2 2 2 2 2 2 2 2 2 2 2 2 2 2 2 2 2
left_child=1 2 3 28 19 -6 7 9 10 22 21 26 24 20 -15 -14 -8 -11 -16 -3 27 -2 -4 -24 -13 -26 -10 -7 -1 -30
right_child=8 4 6 -5 5 13 16 -9 11 17 -12 12 15 14 18 -17 -18 -19 -20 -21 -22 -23 23 -25 25 -27 -28 -29 29 -31
leaf_value=-0.026891138967286357 -0.031938688702874599 0.021909506444467278 -0.079830885656674108 0.031944905066751676 0.029923150258023487 -0.070226895455758498 -0.081379784405795338 0.024078087139765808 -0.060626450220241483 0.0027003849300318281 -0.0082289976205557891 0.030107694479889421 -0.022974838006015273 0.044564598200115775 -0.025358718713785713 -0.081018041053715781 -0.048056039092534607 -0.039631380870041449 -0.1689353610874352 0.043146393432195694 -0.12133279203469288 -0.064465797274658079 0.035992718494229851 -0.079867405408224651 -0.05247847229216529 0.011646027010445472 -0.10613048785300244 -0.030655636304847446 -0.011516393797244265 0.0055271093623320729
leaf_weight=1292.0539979711175 3560.8602900207043 2568.2165065407753 2111.6069557145238 17796.594324022532 2298.2036603838205 994.09948875010014 2221.418608263135 3752.9591734781861 712.84568931162357 730.14071678370237 4949.0296785980463 389.54082703590393 715.44035832583904 373.72218715399504 344.6986979842186 1059.8581710010767 1661.5407785028219 1848.2444357201457 52.112036854028702 10523.039685443044 198.40145340561867 1014.8107602894306 338.62026929110289 891.43356819450855 411.3298351764679 329.27445790171623 725.9367867410183 872.49062707275152 7891.5632979795337 8741.6689107641578
leaf_count=8337 19496 25317 9203 175613 22930 4760 9546 36900 2970 5195 33157 2648 3944 3496 2641 4591 8660 11013 261 115553 841 4790 3164 3793 2423 2518 2930 5207 58397 67061
internal_value=0 0.00710531 0.000448093 0.0137507 0.0251055 -0.0102756 -0.0346061 -0.0215541 -0.0323359 -0.0504822 -0.0230848 -0.0526191 -0.0372844 -0.0428569 -0.00115492 -0.0576268 -0.0671204 -0.027644 -0.0442142 0.0389802 -0.0584176 -0.0391527 -0.0681039 -0.0479724 -0.00532944 -0.0239686 -0.0835855 -0.0517303 -0.00431296 -0.00255911
internal_weight=0 67502.8 49277.8 35721.9 18225 5133.73 13556 9673.01 13868.9 5920.05 9524.7 4344.23 2905.44 2835.52 770.533 1775.3 3882.96 2578.39 396.811 13091.3 2064.99 4575.67 3341.66 1230.05 1130.15 740.604 1438.78 1866.59 17925.3 16633.2
internal_count=657355 577888 396882 309408 181006 40136 87474 69268 79467 32368 57443 22024 16124 17206 6398 8535 18206 16208 2902 140870 10808 24286 16160 6957 7589 4941 5900 9967 133795 125458
is_linear=0
shrinkage=0.05


Tree=12
num_leaves=31
num_cat=0
split_feature=29 3 1 16 1 1 26 22 22 1 4 3 3 1 26 20 24 19 3 12 11 11 13 11 11 13 13 12 2 4
split_gain=6422.3 2882.36 8138.93 5081.42 4243.72 1695.96 1595.64 1595.57 1038.67 933.133 796.077 748.436 592.045 1782.68 803.864 586.661 390.596 381.166 374.219 290.966 260.553 256.116 249.568 464.244 454.658 441.887 402.77 406.809 314.454 248.533
threshold=1.0000000180025095e-35 2.0184523809523816 0.65942028985507262 1.5000000000000002 0.34057971014492755 0.85357142857142865 4.5000000000000009 104.05500000000002 119.01500000000001 0.74342105263157909 0.62828947368421062 1.9688750000000004 0.90010769230769239 0.7958333333333335 27.500000000000004 90.500000000000014 1.0000000180025095e-35 0.9110671936758894 3.1908333333333339 2.5000000000000004 1.0000000180025095e-35 1.0000000180025095e-35 5.6162816019403303 1.0000000180025095e-35 1.0000000180025095e-35 6.3551648718440621 6.264170455118891 2.5000000000000004 19.500000000000004 0.80625000000000013
decision_type=2 2 2 2 2 2 2 2 2 2 2 2 2 2 2 2 2 2 2 2 2 2 2 2 2 2 2 2 8 2
left_child=1 2 3 4 6 29 22 -7 21 10 19 16 -10 14 -14 -6 -11 -5 -9 -2 -17 -4 23 -1 25 -24 27 -26 -25 -3
right_child=9 5 8 17 15 7 -8 18 12 11 -12 -13 13 -15 -16 20 -18 -19 -20 -21 -22 -23 24 28 26 -27 -28 -29 -30 -31
leaf_value=0.025870938931799637 -0.028576257444150679 0.00021436641751014239 -0.028850642305529403 0.0048053120410168461 -0.0066498576525543408 0.031176023062369069 0.024954325459381036 -0.048290781045919766 -0.069387935998040315 -0.019386014321424335 -0.0077770315497052329 -0.025028068608379729 0.027063875408765661 -0.06603310785627195 -0.04992507165966692 -0.079046700162553191 -0.074960859450154654 0.033004927797665035 -0.0064943785479591775 -0.056154257900656368 -0.046274150077882131 0.017366337230903372 0.016113375328283306 -0.056389467910193551 -0.0037088796711184247 -0.016673282007266258 0.012427054801614599 -0.063740167021703473 0.016563937276003492 0.039689577709192229
leaf_weight=329.80148041248322 3309.398228302598 416.04838827997446 519.34498504549265 1294.5718103051186 464.39834262430668 2136.3776030316949 6329.0940331071615 1204.3192489817739 2879.5150075405836 369.46601757407188 4974.1481956392527 1823.2348145097494 1053.5562366321683 2477.4623892679811 499.94077078253031 1728.9307491779327 2191.4839802980423 16114.68156067282 964.37109320610762 1345.21406686306 934.17149691283703 708.97017270326614 1221.9092097356915 791.3727458268404 2223.4320803806186 6465.106531471014 5960.4434921443462 323.23948041349649 181.60501810908318 9576.4905293285847
leaf_count=2537 17679 3703 3210 12001 3108 21861 61990 6570 13495 2138 33157 10455 10228 11741 2827 7097 9431 166346 7128 6607 4931 5660 9224 4559 16716 46849 46209 2331 1148 106419
internal_value=0 0.00684013 0.00142007 0.00985221 -0.00374769 0.0267429 0.00344032 0.000507135 -0.0445417 -0.0303907 -0.0216844 -0.0495121 -0.0520723 -0.0397029 0.00228757 -0.0585076 -0.0669431 0.030908 -0.0297048 -0.0365465 -0.0675506 -0.0021747 -0.00434186 -0.0253955 -0.00264815 -0.0114616 0.00531567 -0.0113284 -0.0427728 0.038046
internal_weight=0 66799.2 52501.5 44362.8 26953.5 14297.6 23826 4305.07 8138.79 14012.9 9628.76 4384.18 6910.47 4030.96 1553.5 3127.5 2560.95 17409.3 2168.69 4654.61 2663.1 1228.32 17496.9 1302.78 16194.1 7687.02 8507.12 2546.67 972.978 9992.54
internal_count=657355 577888 432207 385046 206699 145681 191563 35559 47161 79467 57443 22024 38291 24796 13055 15136 11569 178347 13698 24286 12028 8870 129573 8244 121329 56073 65256 19047 5707 110122
is_linear=0
shrinkage=0.05


Tree=13
num_leaves=31
num_cat=0
split_feature=19 1 0 1 1 22 8 3 11 0 3 1 13 24 1 22 1 1 0 29 0 1 0 1 8 1 0 0 13 11
split_gain=5825.24 5232.62 7623.45 2768.79 2768.02 2548.78 1245.26 1102.19 1095.17 666.356 645.027 2257.13 510.64 388.478 361.015 357.572 348.855 337.096 580.116 304.999 372.682 996.131 306.825 855.872 275.35 259.571 691.057 244.706 244.09 404.606
threshold=0.83666666666666678 0.49000000000000005 5.5000000000000009 0.74342105263157909 0.82480818414322254 128.02000000000001 1.5000000000000002 2.4300833333333336 1.0000000180025095e-35 10.500000000000002 0.50025000000000008 0.65942028985507262 6.4385522883718886 1.0000000180025095e-35 0.8973684210526317 85.050000000000011 0.90454545454545465 0.58578431372549034 6.5000000000000009 1.0000000180025095e-35 3.5000000000000004 0.65942028985507262 2.5000000000000004 0.49000000000000005 1.0000000180025095e-35 0.65942028985507262 2.5000000000000004 9.5000000000000018 5.6162816019403303 1.0000000180025095e-35
decision_type=2 2 2 2 2 2 2 2 2 2 2 2 2 2 2 2 2 2 2 2 2 2 2 2 2 2 2 2 2 2
left_child=3 -2 8 6 -4 -6 19 13 10 -7 -3 -12 -10 -5 27 -16 -11 -8 -19 28 21 22 23 -21 -17 26 -14 -9 29 -1
right_child=1 2 4 7 5 9 17 14 12 16 11 -13 25 -15 15 24 -18 18 -20 20 -22 -23 -24 -25 -26 -27 -28 -29 -30 -31
leaf_value=0.023753528146605741 0.031800137344787704 -0.070540118413134442 0.037136156274477854 -0.019754111762029611 0.026031097912232862 -0.052580567830003033 -0.062764648642367235 -0.038588246264011611 0.0051139118016372753 0.040720448670064156 0.020449961801561108 -0.062051094816659248 -0.043076610226697828 -0.069059231831877718 0.011318959972569306 -0.034942289894282302 -0.025534456686512965 0.045504446095761895 -0.045658234575964129 -0.0069479906868048519 -0.0041199446962414156 -0.08627121034140417 0.0022543177216573229 -0.09437262953676491 -0.11243600209476919 -0.043836339090630172 0.022333626407432271 0.014983679863024957 -0.0012382995481451623 -0.039091747396484924
leaf_weight=342.63127701729536 19375.847259826958 2164.323471210897 9401.9620950520039 454.94255681335926 3098.4178679659963 2227.2176194190979 1224.0486023277044 283.92575753480196 1719.0536105111241 320.04842349886894 1201.7768083140254 2673.016742490232 943.64062933623791 3278.5011482015252 199.42954557389021 263.3132648319006 523.9021203443408 232.81933805346489 696.79269315302372 1021.0806666314602 3825.2265356779099 584.44602434337139 1381.8658884316683 385.69718292355537 203.00046449154615 1498.2469773069024 705.82995384931564 855.27977418899536 18189.306236818433 1014.2168108522892
leaf_count=2710 202895 9211 106128 2618 30729 10495 5706 1617 12896 3256 12238 12290 4949 15257 1559 1522 2950 1067 3432 6109 25917 2467 8300 1911 938 7961 7161 7195 139991 5880
internal_value=0 0.0120554 -0.00239359 -0.0151567 0.0200593 -0.00596445 -0.00895002 -0.0475421 -0.0344521 -0.0382439 -0.0486758 -0.0364632 -0.016802 -0.0630511 -0.0154625 -0.0447139 -0.00040884 -0.0455257 -0.0228267 -0.00600467 -0.0148033 -0.0269188 -0.0144796 -0.0309173 -0.0686776 -0.0287709 -0.0150867 0.00163188 -0.00276436 -0.0232221
internal_weight=0 45853.3 26477.4 34436.5 15571.5 6169.59 28898.1 5538.39 10905.9 3071.17 6039.12 3874.79 4866.77 3733.44 1804.95 665.743 843.951 2153.66 929.612 26744.5 7198.32 3373.09 2788.64 1406.78 466.314 3147.72 1649.47 1139.21 19546.2 1356.85
internal_count=657355 423159 220264 234196 153558 47430 203490 30706 66706 16701 33739 24528 32967 17875 12831 4019 6206 10205 4499 193285 44704 18787 16320 8020 2460 20071 12110 8812 148581 8590
is_linear=0
shrinkage=0.05


Tree=14
num_leaves=31
num_cat=0
split_feature=19 1 0 1 1 22 1 0 8 3 11 0 1 11 24 1 22 24 29 19 11 8 4 0 0 1 1 0 16 1
split_gain=5287.64 4864.62 6948.31 2465.6 2085.26 1689.34 1230.04 3733.23 1099.66 971.789 714.537 469.433 412.421 353.74 350.417 328.41 327.833 293.136 272.76 337.222 269.469 255.571 251.077 233.847 228.824 1200.75 222.639 553.52 220.964 232.419
threshold=0.83666666666666678 0.49000000000000005 6.5000000000000009 0.74342105263157909 0.85357142857142865 104.05500000000002 0.74342105263157909 3.5000000000000004 1.5000000000000002 2.3506250000000004 1.0000000180025095e-35 12.500000000000002 0.91833333333333345 1.0000000180025095e-35 1.0000000180025095e-35 0.8973684210526317 85.050000000000011 1.0000000180025095e-35 1.0000000180025095e-35 0.58434959349593507 1.0000000180025095e-35 1.0000000180025095e-35 0.97619047619047628 9.5000000000000018 2.5000000000000004 0.65942028985507262 0.65942028985507262 4.5000000000000009 1.5000000000000002 0.16333333333333336
decision_type=2 2 2 2 2 2 2 2 2 2 2 2 2 2 2 2 2 2 2 2 2 2 2 2 2 2 2 2 2 2
left_child=3 28 6 8 -4 -6 7 10 18 14 24 20 -13 -8 -5 23 -17 -10 -1 26 -7 -18 -12 -11 -3 -26 -20 -28 29 -2
right_child=1 2 4 9 5 11 13 -9 17 15 22 12 -14 -15 -16 16 21 -19 19 -21 -22 -23 -24 -25 25 -27 27 -29 -30 -31
leaf_value=-0.0026206156418469885 0.032618641859158776 -0.068175475365344212 0.037817899496244263 -0.018260465951452177 0.03109974731842869 -0.059994036735817685 -0.066310743356332705 0.024396356134962775 -0.054475948520768341 -0.036042595572347617 0.019478609803098925 0.044787750043226077 -0.031096059054205497 -0.035085777224794418 -0.065458883375633312 0.0095832707905521008 -0.033020646628402837 -0.014449759146776368 -0.018346077691975236 -0.0016223018711324353 -0.022697023816693668 -0.10571353461192692 -0.028074482973313254 0.013456384515588712 0.039760831401868008 -0.067574619941176459 -0.090521717741841354 0.0023948024108002026 0.034715367819663535 0.013037118881212754
leaf_weight=19577.770469889045 3128.8903554826975 1960.4641619175673 8590.7093332335353 447.63278816640377 1991.3037387132645 1034.7586109265685 2077.8867424279451 3277.7162954807281 1535.9612853601575 327.34261497110128 315.11402198672295 339.43208947777748 378.95608127862215 1609.668643951416 3236.9843106940389 207.6352943778038 271.50294131040573 651.42750572413206 3452.5035251677036 3131.0858556032181 910.33724804967642 217.99288529902697 2330.4374763667583 880.18334750086069 342.57480549812317 1088.3383020162582 369.29194118082523 283.19938054680824 12828.860493548214 2938.566148608923
leaf_count=148581 32109 7947 101197 2547 20901 4666 8575 34077 6822 1815 2285 3228 2659 7949 14757 1617 1542 3383 20860 20468 5032 985 13746 7443 3551 4451 1519 1857 140810 29976
internal_value=0 0.0116528 -0.00227357 -0.0143276 0.0232146 -0.00373677 -0.0282387 -0.0185624 -0.00846729 -0.0447353 -0.0418866 -0.0297816 0.00475837 -0.0526806 -0.0597249 -0.0157374 -0.0430625 -0.0425557 -0.00568646 -0.0139814 -0.0425384 -0.0653938 -0.0224104 3.79355e-05 -0.0570796 -0.0418774 -0.0234082 -0.0501934 0.030997 0.023135
internal_weight=0 45144 26247.7 34590.5 13245.5 4654.79 13002.2 9314.65 29001.2 5589.27 6036.93 2663.48 718.388 3687.56 3684.62 1904.66 697.131 2187.39 26813.9 7236.08 1945.1 489.496 2645.55 1207.53 3391.38 1430.91 4104.99 652.491 18896.3 6067.46
internal_count=657355 423159 220264 234196 137683 36486 82581 66057 203490 30706 31980 15585 5887 16524 17304 13402 4144 10205 193285 44704 9698 2527 16031 9258 15949 8002 24236 3376 202895 62085
is_linear=0
shrinkage=0.05


Tree=15
num_leaves=31
num_cat=0
split_feature=19 1 0 1 1 22 13 3 8 20 1 0 1 0 1 0 1 1 0 1 0 3 1 0 1 0 22 8 8 1
split_gain=4818.46 4396.48 6572.46 2107.56 1784.25 1475.19 1145.71 1032 1017.66 703.068 1789.82 633.302 503.35 436.816 399.575 479.851 390.611 362.622 327.082 1118.39 369.445 316.999 428.643 748.819 310.648 964.191 310.641 300.685 284.787 256.649
threshold=0.87689393939393956 0.49000000000000005 6.5000000000000009 0.74342105263157909 0.85357142857142865 102.54000000000001 6.3551648718440621 2.4500500000000005 1.5000000000000002 480.08000000000004 0.74342105263157909 3.5000000000000004 0.65942028985507262 11.500000000000002 0.74342105263157909 3.5000000000000004 0.8973684210526317 0.9110671936758894 6.5000000000000009 0.85357142857142865 11.500000000000002 1.970294117647059 0.39009661835748799 2.5000000000000004 0.6132478632478634 4.5000000000000009 85.050000000000011 1.0000000180025095e-35 1.0000000180025095e-35 0.58578431372549034
decision_type=2 2 2 2 2 2 2 2 2 2 2 2 2 2 2 2 2 2 2 2 2 2 2 2 2 2 2 2 2 2
left_child=3 -2 6 8 -4 -6 14 18 21 -8 11 12 -11 -7 15 -3 -9 -15 27 20 -20 22 -1 -24 -25 -26 -18 -5 -28 -10
right_child=1 2 4 7 5 13 9 16 29 10 -12 -13 -14 17 -16 -17 26 -19 19 -21 -22 -23 23 24 25 -27 28 -29 -30 -31
leaf_value=-0.0036062599487227559 0.030294536334647706 -0.012126011868837196 0.038692464622518311 -0.052362123486066628 0.033021981576119692 -0.041407001742685245 -0.052365046362088642 0.005199897733646556 -0.054925732873205763 0.019243282145850832 -0.055461819215987612 0.019280158914470658 -0.04907334189863892 0.04558226005049977 -0.029799665851024861 0.032373790456075691 0.0093292620537739051 -0.022647558788811004 0.024712906240193636 -0.069673843113857159 -0.045606376772289979 0.013604559524826683 -0.085311233063087744 -0.0036380774404031896 -0.07750991313131908 0.0059340343284548938 -0.028916190979035236 -0.092545185945092201 -0.10065147920001026 -0.020587950554962011
leaf_weight=21128.706428878009 18194.172133684158 1286.2397502884269 7797.0995250418782 1105.3943448960781 1793.5534862726927 1648.3181800246239 3823.2465009987354 1338.4206859618425 1266.6432261094451 399.10733538120985 2571.8744166791439 1870.532976962626 831.05724596977234 312.68127696961164 923.5610973238945 1145.1519983932376 236.13956700265408 516.25621344149113 603.89950289577246 1345.3249748572707 270.42634317278862 2116.3736592456698 408.63077595829964 2503.4020916521549 650.65827675163746 739.81526374071836 331.097168430686 804.28335608541965 237.66988048702478 954.04110277444124
leaf_count=153191 200685 7874 95983 4560 19475 8115 18959 10799 5710 3267 11126 19736 3752 3182 4391 12394 1919 3445 4132 6112 1619 18302 1944 17780 2698 5528 1890 3246 1075 4529
internal_value=0 0.0116086 -0.00203482 -0.0131633 0.0244636 -0.00151364 -0.026919 -0.0395031 -0.00761304 -0.035793 -0.0246236 0.000955124 -0.0269091 -0.0265177 -0.00180207 0.00883278 -0.011353 0.00308923 -0.0541145 -0.0410619 0.00296336 -0.00498824 -0.00653553 -0.0209205 -0.0141633 -0.0331127 -0.0388777 -0.0692857 -0.0588921 -0.0401737
internal_weight=0 43112.9 24918.7 36040.9 12067.9 4270.81 12850.8 6272.66 29768.3 9495.82 5672.57 3100.7 1230.16 2477.26 3354.95 2431.39 2143.33 828.937 4129.33 2219.65 874.326 27547.6 25431.2 4302.51 3893.88 1390.47 804.907 1909.68 568.767 2220.68
internal_count=657418 412384 211699 245034 130200 34217 81499 35352 209682 56840 37881 26755 7019 14742 24659 20268 15683 6627 19669 11863 5751 199443 181141 27950 26006 8226 4884 7806 2965 10239
is_linear=0
shrinkage=0.05


Tree=16
num_leaves=31
num_cat=0
split_feature=19 1 0 1 13 1 3 22 8 0 1 1 1 0 3 1 16 22 8 3 1 0 11 0 24 11 1 0 12 13
split_gain=4386.1 4051.97 6090.82 1853.27 1314.89 1135.55 1010.88 1006.35 910.046 715.584 2482.66 429.588 379.526 547.676 330.562 721.378 477.954 307.801 315.299 305.171 377.285 647.819 299.451 296.406 289.946 279.592 276.581 859.857 242.734 289.734
threshold=0.89087301587301593 0.49000000000000005 7.5000000000000009 0.74342105263157909 6.3551648718440621 0.86811594202898557 2.3506250000000004 102.54000000000001 1.5000000000000002 2.5000000000000004 0.65942028985507262 0.8973684210526317 0.74342105263157909 3.5000000000000004 0.90010769230769239 0.7958333333333335 3.5000000000000004 80.040000000000006 1.0000000180025095e-35 1.970294117647059 0.39009661835748799 2.5000000000000004 1.0000000180025095e-35 9.5000000000000018 1.0000000180025095e-35 1.0000000180025095e-35 0.6132478632478634 4.5000000000000009 2.5000000000000004 5.9273738253862183
decision_type=2 2 2 2 2 2 2 2 2 2 2 2 2 2 2 2 2 2 2 2 2 2 2 2 2 2 2 2 2 2
left_child=3 -2 4 8 12 -4 24 -7 19 22 -11 23 13 -3 -12 16 -16 -13 -19 20 28 -22 -6 -8 -5 -9 -23 -28 -1 -30
right_child=1 2 5 6 9 7 11 25 -10 10 14 17 -14 -15 15 -17 -18 18 -20 -21 21 26 -24 -25 -26 -27 27 -29 29 -31
leaf_value=-0.001025395278906237 0.029549559259791726 -0.011464545762440667 0.039828334972273033 -0.014727837624409447 -0.067393566691154733 0.033303423935471213 -0.031716057129435669 -0.042047049931699783 -0.037695403466462392 0.020327994650359379 -0.05552505143279305 0.0071273775273748251 -0.021311058917307932 0.033407402929781935 -0.048484695067895309 -0.049417113585412523 0.025815590544596687 -0.026948369292704819 -0.098244404749230879 0.013184456024309111 -0.07842003147019469 -0.0033905296650292779 -0.03349870297500105 0.017787210350230932 -0.056591244589538806 -0.0020200108255433494 -0.07275079139849322 0.0054740715596997705 -0.057608582667534186 -0.010529812179836522
leaf_weight=17697.473846130073 17693.363638564944 1293.1163346022367 6716.6943901628256 467.2602566331625 1661.0611904114485 1550.8144168257713 410.76661098748446 873.25026884675026 2248.005074210465 2214.7078518420458 2564.4784745872021 258.90814220160246 1231.3415964394808 1434.2117182984948 312.34515017271042 1849.6214385554194 704.94321345537901 360.82942496985197 271.94268694519997 2214.7501435354352 421.9463881701231 2542.3885332196951 1072.2734292447567 1146.0316907837987 3602.0163536518812 871.83840512484312 658.05549658834934 753.60687413811684 364.94587744772434 3127.0156053900719
leaf_count=128349 200020 7873 85844 2639 6666 17386 2341 4719 10242 23970 11296 2111 6972 16314 1351 8036 7244 2065 1227 19548 1944 18108 5403 10206 16598 5618 2700 5689 2327 22612
internal_value=0 0.0113399 -0.00189131 -0.0123422 -0.0227881 0.028033 -0.0365099 0.00399548 -0.00709649 -0.0321391 -0.0242896 -0.0111246 0.00172965 0.0121321 -0.0424829 -0.0308166 0.00300266 -0.0387978 -0.0575888 -0.00462039 -0.00616284 -0.0195288 -0.0540968 0.0047256 -0.0517842 -0.0220497 -0.0132443 -0.030991 -0.00340254 -0.01545
internal_weight=0 42044.1 24350.7 36545.9 14338.1 10012.6 6517.76 3295.9 30028.2 10379.4 7646.1 2448.48 3958.67 2727.33 5431.39 2866.91 1017.29 891.68 632.772 27780.2 25565.4 4376 2733.33 1556.8 4069.28 1745.09 3954.05 1411.66 21189.4 3491.96
internal_count=657418 408712 208692 248706 95125 113567 37187 27723 211519 63966 51897 17950 31159 24187 27927 16631 8595 5403 3292 201277 181729 28441 12069 12547 19237 10337 26497 8389 153288 24939
is_linear=0
shrinkage=0.05


Tree=17
num_leaves=31
num_cat=0
split_feature=19 1 3 1 1 11 23 25 17 3 1 13 16 12 1 11 24 8 3 1 3 1 23 4 1 17 16 1 3 1
split_gain=3991.44 3823.83 5343.96 1754.38 1160.33 1146.99 1123.63 799.171 773.656 502.372 1778.17 499.644 440.799 436.643 330.208 290.696 288.623 275.959 266.467 529.313 579.604 252.366 233.349 226.444 218.866 735.965 218.08 233.499 216.523 199.461
threshold=0.86038961038961048 0.49000000000000005 1.6402142857142858 0.74342105263157909 0.85357142857142865 1.0000000180025095e-35 4.6399579368505854 1.0000000180025095e-35 10.500000000000002 0.50025000000000008 0.63961038961038974 6.5155087646215799 5.5000000000000009 2.5000000000000004 0.8973684210526317 1.0000000180025095e-35 1.0000000180025095e-35 1.0000000180025095e-35 1.9200937500000002 0.49000000000000005 0.37559523809523815 0.7958333333333335 4.3949427381281199 0.76696832579185525 0.82480818414322254 4.5000000000000009 1.5000000000000002 0.16333333333333336 3.4813392857142862 0.74342105263157909
decision_type=2 2 2 2 2 2 2 2 2 2 2 2 2 2 2 2 2 2 2 2 2 2 2 2 2 2 2 2 2 2
left_child=3 26 5 7 12 9 -6 18 16 -3 -11 -7 21 -9 -10 28 -5 -18 19 -1 -21 -4 -16 -20 25 -19 27 -2 -8 -13
right_child=1 2 4 8 6 11 15 13 14 10 -12 29 -14 -15 22 -17 17 24 23 20 -22 -23 -24 -25 -26 -27 -28 -29 -30 -31
leaf_value=-0.0028770284662666379 0.030483501799092635 -0.058062149353643781 0.024879296147072988 -0.011552831127499033 0.031412785755636968 0.010314496644020231 -0.050894738665543504 -0.017186300055705945 0.010932921985650467 0.017953931805237629 -0.049348848934381781 -0.01227404951288516 0.03661647172736622 -0.056668676428569965 0.0059738477233938526 -0.0038307940764193051 -0.038421316649305787 -0.08045687260515684 -0.015049728023431222 -0.069586351850720415 -0.014544506178967548 -0.037936741387380075 -0.055076685309023959 0.022129552396764049 -0.07895574275345929 0.018508595828682424 0.032540408099615718 0.010184108409959447 -0.0035116511816658522 -0.038024795724290607
leaf_weight=21304.011159852147 2910.8995189145207 2196.6005806028843 318.339873932302 489.69205752015114 1731.2820546478033 2239.3501069024205 906.59496228396893 1972.3114258348942 981.76877886801958 1405.001066789031 3255.1543454527855 2631.629209280014 7304.7636997774243 1085.7542945146561 238.32560355216265 1212.730740480125 1857.5899778679013 529.4531047642231 549.86529801040888 588.80772823095322 2548.0127498283982 321.24640041589737 455.98272393643856 1604.8091675192118 1181.5587976053357 291.16912752389908 11770.081669047475 2759.6788176074624 328.44704020768404 1052.8575405701995
leaf_count=154057 32137 9184 3440 2770 19693 18168 4226 10707 8352 15469 15510 18800 94369 5186 1869 7791 8817 2188 3883 2608 16126 1379 2374 14515 5063 1798 139685 29809 2480 4965
internal_value=0 0.0107051 -0.00186869 -0.0119957 0.0219123 -0.0244269 0.000584909 -0.00699786 -0.0365917 -0.0383494 -0.0290576 -0.00831179 0.0331314 -0.0312044 -0.00773037 -0.0212193 -0.0477135 -0.0523013 -0.00421449 -0.00570049 -0.0248763 -0.00667145 -0.0341207 0.0126415 -0.0651789 -0.0453424 0.0286596 0.0206045 -0.0382937 -0.0196324
internal_weight=0 42344.7 24904 35679.1 12123.4 12780.6 4179.05 29653.6 6025.54 6856.76 4660.16 5923.84 7944.35 3058.07 1676.08 2447.77 4349.46 3859.77 26595.5 24440.8 3136.82 639.586 694.308 2154.67 2002.18 820.622 17440.7 5670.58 1235.04 3684.49
internal_count=657418 417105 215474 240313 133378 82096 34190 207082 33231 40163 30979 41933 99188 15893 12595 14497 20636 17866 191189 172791 18734 4819 4243 18398 9049 3986 201631 61946 6706 23765
is_linear=0
shrinkage=0.05


Tree=18
num_leaves=31
num_cat=0
split_feature=19 1 0 1 1 11 0 1 22 29 3 1 22 0 8 3 1 0 8 12 4 0 0 1 0 1 1 0 22 11
split_gain=3642.52 3484.27 5140.85 1511.55 1038.99 1014.91 877.559 910.132 847.969 826.806 604.616 1705.12 444.828 437.226 411.065 386.639 645.234 804.223 331.974 331.717 301.382 253.256 252.801 1264.25 233.93 239.184 222.064 640.64 210.548 208.755
threshold=0.89087301587301593 0.49000000000000005 7.5000000000000009 0.7958333333333335 0.86811594202898557 1.0000000180025095e-35 8.5000000000000018 0.88562091503267981 102.54000000000001 1.5000000000000002 0.52857321428571435 0.65942028985507262 164.01000000000002 16.500000000000004 1.0000000180025095e-35 1.5998416666666671 0.65942028985507262 4.5000000000000009 1.0000000180025095e-35 2.5000000000000004 0.78174603174603186 14.500000000000002 4.5000000000000009 0.7958333333333335 3.5000000000000004 0.16333333333333336 0.65942028985507262 2.5000000000000004 80.040000000000006 1.0000000180025095e-35
decision_type=2 2 2 2 2 2 2 2 2 2 2 2 2 2 2 2 2 2 2 2 2 2 2 2 2 2 2 2 2 2
left_child=3 24 5 9 -4 10 18 -8 -6 15 -3 -12 -7 14 -9 16 -1 -18 -5 -11 -17 29 -13 -24 25 -2 27 -14 -16 -10
right_child=1 2 4 6 8 12 7 13 21 19 11 22 26 -15 28 20 17 -19 -20 -21 -22 -23 23 -25 -26 -27 -28 -29 -30 -31
leaf_value=-0.0040513721240433469 0.031945988391122164 -0.054847873673937057 0.038542336010389658 -0.043301777126149382 0.031767396463245487 0.012003438695766042 0.016225434020458708 -0.02450388893022044 -0.046435086908127136 -0.017179832113329793 0.01904435878748803 -0.056505512255464678 -0.034204636611903413 0.0025090664800869011 -0.014107815328716354 -0.01280923195460538 -0.063097773027005769 0.019538355248629354 -0.083117157131121888 -0.045715117203279497 0.020140704716614149 0.020876685868540398 0.032955449350713269 -0.053906706703767106 0.034643085783789558 0.015885805877911646 -0.025554961166519966 0.022877116702839709 -0.092928734844885424 -0.0084970463428414439
leaf_weight=22244.79103820771 4063.7476536482573 2238.9412154331803 6313.6714037284255 1164.4021487683058 1472.3955565989017 2215.0104573071003 1126.1355096772313 559.28396129608154 763.30756925046444 3003.4520223736763 1618.9956068992615 1703.0462016314268 899.8454395532608 417.43439213186502 98.489542081952095 941.17652105540037 1002.3212563544512 416.8833781927824 951.20851451158524 1541.0093450993299 2642.2965668290854 317.51599237322807 571.7356378659606 1567.0559133738279 7418.9474981576204 5397.5228044986725 2437.9597321152687 1083.2848678529263 606.20866972208023 690.7135020121932
leaf_count=159510 46754 9401 85844 4964 17386 18242 8824 3133 3531 16293 18369 6844 4348 3086 606 6644 4088 2863 3914 7513 24722 2862 5950 6449 91503 61763 13489 12033 2546 3944
internal_value=0 0.0106066 -0.00167872 -0.0111043 0.0267257 -0.0206157 -0.0368851 -0.0185603 0.00372683 -0.00711203 -0.0329663 -0.0239948 -0.00628542 -0.0418581 -0.0565105 -0.00381903 -0.00613679 -0.0388239 -0.0612033 -0.026856 0.0114866 -0.0195788 -0.0421321 -0.030687 0.0279961 0.0227839 -0.0154483 -0.00302373 -0.0819126 -0.0284131
internal_weight=0 40773.7 23893.5 36715.1 9557.6 14335.9 4923.16 2807.55 3243.93 31791.9 7699.77 5460.83 6636.1 1681.42 1263.98 27247.5 23664 1419.2 2115.61 4544.46 3583.47 1771.54 3841.84 2138.79 16880.2 9461.27 4421.09 1983.13 704.698 1454.02
internal_count=657418 408712 208692 248706 113567 95125 27073 18195 27723 221633 47013 37612 48112 9371 6285 197827 166461 6951 8878 23806 31366 10337 19243 12399 200020 108517 29870 16381 3152 7475
is_linear=0
shrinkage=0.05


Tree=19
num_leaves=31
num_cat=0
split_feature=19 1 0 1 13 1 0 1 22 8 0 1 0 8 3 1 0 4 8 3 1 24 0 1 0 1 17 3 3 22
split_gain=3315.7 3229.76 4708.59 1372.32 1048.87 989.469 792.803 819.725 778.453 739.721 588.05 2106.05 392.369 379.416 356.398 766.089 993.482 325.363 317.455 310.854 828.221 263.953 227.263 228.973 226.718 211.735 242.747 196.409 206.172 193.598
threshold=0.89087301587301593 0.49000000000000005 7.5000000000000009 0.7958333333333335 6.0527143834046244 0.86811594202898557 8.5000000000000018 0.88562091503267981 102.54000000000001 1.5000000000000002 2.5000000000000004 0.65942028985507262 16.500000000000004 1.0000000180025095e-35 1.5670611111111115 0.63961038961038974 4.5000000000000009 0.7947368421052633 1.0000000180025095e-35 1.0002117647058826 0.74342105263157909 1.0000000180025095e-35 3.5000000000000004 0.16333333333333336 14.500000000000002 0.7958333333333335 4.5000000000000009 0.52857321428571435 0.19827586206896555 80.040000000000006
decision_type=2 2 2 2 2 2 2 2 2 2 2 2 2 2 2 2 2 2 2 2 2 2 2 2 2 2 2 2 2 2
left_child=3 22 4 9 25 -4 18 -8 -7 14 27 -12 13 -9 15 -1 -17 -16 -5 -13 -21 -11 23 -2 -10 26 -3 28 -6 -15
right_child=1 2 5 6 10 8 7 12 24 21 11 19 -14 29 17 16 -18 -19 -20 20 -22 -23 -24 -25 -26 -27 -28 -29 -30 -31
leaf_value=-0.0042725294206045978 0.031165208662280765 0.003301229413233635 0.037853998907290777 -0.040897292191206164 -0.015285706041686492 0.030989311025274132 0.015581883738153696 -0.02303413087837726 -0.026746941602886327 -0.043120810372041782 0.019843889004575475 -0.046007165602326053 0.0023873205994714205 -0.013313279053492201 -0.01604238190955249 -0.061036516497334541 0.02589285687518017 0.017775718000092047 -0.079907851849313122 0.028136243671738483 -0.036475609399459562 -0.0091485217542439708 0.03388943521285092 0.015291367896799019 0.020144073758521036 -0.021101207747257267 0.038643204521020588 0.0270626530090321 -0.052599382444372456 -0.088708838545418653
leaf_weight=23623.684440113604 3959.9472341611981 1351.3037609755993 6112.2056390792131 1171.0382790416479 433.98594816029072 1434.861487545073 1114.3216608762741 565.06804542988539 1466.9133222773671 1777.1707413196564 2458.8137168064713 3106.010078035295 416.80275654792786 99.132000885903835 936.83298071473837 1283.8754152655602 441.76888877153397 2953.4436631277204 940.21401835232973 618.67375449091196 2500.8712606430054 842.97254467755556 7210.0943709313869 5328.7681722939014 312.73449212312698 470.00265545397997 758.62304878234863 92.020371362566948 2518.6279840171337 603.35840197652578
leaf_count=167292 46754 10166 85844 4964 2436 17386 8824 3133 7475 7731 27799 13681 3086 606 6687 5227 3177 27211 3914 6482 11782 4308 91503 61763 2862 2441 9169 473 10696 2546
internal_value=0 0.0102521 -0.0015985 -0.0105319 -0.0196159 0.0260436 -0.0351376 -0.0176871 0.00358676 -0.00673991 -0.0259648 -0.0193359 -0.0396968 -0.0535351 -0.00445926 -0.00662177 -0.0387824 0.00963185 -0.0582701 -0.0348101 -0.0236617 -0.032191 0.0272288 0.0220587 -0.0185069 0.00924791 0.0160084 -0.044873 -0.0471149 -0.0780694
internal_weight=0 40134.5 23635.6 36769.7 14308.9 9326.71 4909.94 2798.68 3214.51 31859.7 11729 8684.37 1684.36 1267.56 29239.6 25349.3 1725.64 3890.28 2111.25 6225.56 3119.55 2620.14 16498.8 9288.72 1779.65 2579.93 2109.93 3044.63 2952.61 702.49
internal_count=657418 408712 208692 248706 95125 113567 27073 18195 27723 221633 73349 59744 9371 6285 209594 175696 8404 33898 8878 31945 18264 12039 200020 108517 10337 21776 19335 13605 13132 3152
is_linear=0
shrinkage=0.05


Tree=20
num_leaves=31
num_cat=0
split_feature=29 0 1 26 1 13 22 1 0 1 8 3 4 1 0 4 3 13 0 3 1 0 12 13 3 26 3 1 24 22
split_gain=2932.59 1868.62 3874.88 2528.67 1570.19 1001.65 957.158 565.015 1732.87 424.831 408.271 401.69 367.766 294.209 364.651 257.217 216.417 216.312 194.728 185.095 635.577 385.096 178.61 194.167 173.324 176.183 169.018 350.413 159.723 147.166
threshold=1.0000000180025095e-35 7.5000000000000009 0.49000000000000005 6.5000000000000009 0.86811594202898557 6.264170455118891 95.070000000000007 0.74342105263157909 3.5000000000000004 0.72474747474747481 1.0000000180025095e-35 1.3468333333333335 0.62828947368421062 0.74342105263157909 3.5000000000000004 0.89181286549707617 2.6202062500000003 6.8305096600768644 6.5000000000000009 0.30093750000000002 0.65942028985507262 2.5000000000000004 2.5000000000000004 5.9273738253862183 0.25119047619047624 9.5000000000000018 0.30093750000000002 0.42481203007518803 1.0000000180025095e-35 126.03500000000001
decision_type=2 2 2 2 2 2 2 2 2 2 2 2 2 2 2 2 2 2 2 2 2 2 2 2 2 2 2 2 2 2
left_child=1 2 3 17 15 13 -6 8 19 12 16 -11 18 14 -4 -3 -8 22 -2 24 21 -21 -1 -24 25 -7 27 -14 -28 -13
right_child=9 4 5 -5 6 7 10 -9 -10 11 -12 29 26 -15 -16 -17 -18 -19 -20 20 -22 -23 23 -25 -26 -27 28 -29 -30 -31
leaf_value=-0.003493097410292992 -0.01867465224891264 0.01334594586957546 -0.0087883764256249108 0.024750447876044267 0.02656513767569034 -0.059069173472178549 -0.036489164480233115 -0.042921242369195915 0.013822108319226865 -0.051756260766690092 -0.082682917330483593 -0.0065269158760562149 0.0019179467861775172 -0.017638843278415677 0.027766384102063058 0.03777813616700644 -0.0038782146635602654 0.006409834718362515 -0.043009659014738341 -0.030217264539824585 -0.045931288182931407 0.03547795228026112 -0.053181143966141591 -0.012549946859328188 -0.057512738565543724 -0.014762337170026812 -0.019912904436682938 -0.087447005220001595 0.0031760581179494083 -0.029907103445527678
leaf_weight=10991.111445821822 3840.0067428350449 1261.7894349843264 1281.6805929690599 15811.03336507082 1576.7694477066398 346.21884266287088 824.92208760231733 3931.1083302944899 2567.2835560292006 1708.5619245991111 260.22956245392561 1077.0064473971725 276.67297710478306 1380.0863749608397 1458.6645020172 7365.5324953868985 1327.3698249012232 4762.2814210727811 1045.9861791580915 400.83165054023266 1630.3248799741268 502.99622886627913 354.32770422846079 1727.9237122163177 1458.8648649081588 637.51156238466501 947.15032033622265 181.757323756814 3580.9008201211691 1794.4945734739304
leaf_count=79171 19496 13900 7798 191767 18969 1545 4062 17610 28623 7444 1212 6237 1751 7687 17485 104959 9131 36075 4524 1802 6905 5164 2207 12553 6069 3069 5750 781 24325 9190
internal_value=0 0.00504194 0.000643161 0.0101922 0.0222102 -0.0199584 -0.00372948 -0.0275515 -0.0195426 -0.019974 -0.0235294 -0.0325599 -0.0141352 0.00118794 0.0106694 0.0342048 -0.0163772 -0.00271347 -0.0238843 -0.0367539 -0.0272871 0.00634329 -0.00603685 -0.019464 -0.0465756 -0.0303559 -0.00458256 -0.0335133 -0.00165355 -0.021138
internal_weight=0 61858.9 49242.2 33646.7 12616.6 15595.6 3989.29 11475.1 7544.03 14452.5 2412.52 4580.06 9872.47 4120.43 2740.35 8627.32 2152.29 17835.6 4885.99 4976.75 2534.15 903.828 13073.4 2082.25 2442.6 983.73 4986.48 458.43 4528.05 2871.5
internal_count=657261 577763 425530 321773 152233 103757 33374 70787 53177 79498 14405 22871 56627 32970 25283 118859 13193 130006 24020 24554 13871 6966 93931 14760 10683 4614 32607 2532 30075 15427
is_linear=0
shrinkage=0.05


Tree=21
num_leaves=31
num_cat=0
split_feature=29 0 1 1 27 22 11 0 1 1 0 18 4 1 22 22 1 0 8 1 8 0 24 13 8 1 22 1 11 12
split_gain=2645.73 1738.73 3480.69 2560.43 1884.29 1532.05 632.427 415.11 392.118 384.39 376.824 329.838 327.342 314.59 337.161 283.686 270.859 1013.53 255.72 249.269 235.842 235.133 206.444 194.387 194.321 218.902 250.63 193.639 185.097 177.107
threshold=1.0000000180025095e-35 5.5000000000000009 0.49000000000000005 0.82480818414322254 3.5000000000000004 115.01500000000001 1.0000000180025095e-35 10.500000000000002 0.90454545454545465 0.72474747474747481 6.5000000000000009 1.0000000180025095e-35 0.62828947368421062 0.85357142857142865 159.87000000000003 168.01500000000001 0.74342105263157909 3.5000000000000004 1.0000000180025095e-35 0.58957219251336912 1.0000000180025095e-35 8.5000000000000018 1.0000000180025095e-35 6.7161365378208684 1.0000000180025095e-35 0.90454545454545465 80.040000000000006 0.23764705882352943 1.0000000180025095e-35 2.5000000000000004
decision_type=2 2 2 2 2 2 2 2 2 2 2 2 2 2 2 2 2 2 2 2 2 2 2 2 2 2 2 2 2 2
left_child=1 2 4 11 23 24 16 28 -9 12 18 -3 -2 21 -15 -8 17 -4 -11 -19 -10 -12 -23 29 -5 -26 -27 -6 -7 -1
right_child=9 3 6 5 27 7 15 8 20 10 13 -13 -14 14 -16 -17 -18 19 -20 -21 -22 22 -24 -25 25 26 -28 -29 -30 -31
leaf_value=-0.0037102076703822355 -0.022513820695705344 0.035948014153726837 -0.041686016583137281 0.027486582131955185 0.027747780687237034 -0.048856358429772651 0.0051329763459787405 0.035951391570226247 -0.012428712402422508 -0.032131205530125266 0.035041441796077009 0.016187100378103336 -0.004344719503998876 -0.015253878083697032 -0.058245811664495217 -0.019411939152483081 -0.051039508028690672 -0.010793404579934543 -0.074659706377625437 0.036171712559529903 -0.091847230536904703 -0.043040009061024523 0.0033067964525016176 0.0046063446290018576 0.02449144093808861 -0.018306201866080833 -0.17482518534172364 0.015604497921608052 -0.022993902687849566 -0.020597901240277869
leaf_weight=9823.5152835473418 4923.2104080766439 9216.2760302722454 3425.7472613155842 2297.5627698302269 7316.5955267995596 1543.3673196136951 1764.0677773952484 432.07922723889351 691.35508166253567 745.44408772885799 314.14998837560415 2739.3162304162979 4993.2323222905397 1009.537399366498 831.7827106565237 3538.6631499826908 1802.1572154313326 559.60584592074156 672.19395054876804 570.60126537829638 108.09583896398544 389.50026858597994 627.13291572034359 6149.1934890374541 135.79087190330029 79.24986220896244 37.764024451375008 5954.8450489491224 1253.9036114960909 1843.9246810674667
leaf_count=70532 24020 131679 16159 27737 89888 6339 13017 5365 3940 3009 1962 30945 32607 5044 3526 21455 7237 6409 2896 5983 452 2233 4201 46126 1400 842 256 73249 5986 12767
internal_value=0 0.00484411 -0.000701447 0.0176345 0.00803648 -0.00741698 -0.023997 -0.026614 -0.00242553 -0.0189024 -0.030866 0.0314203 -0.0133651 -0.0212885 -0.0346747 -0.0112465 -0.0346309 -0.0281404 -0.0522967 0.0129176 -0.0231671 -0.00276681 -0.0144499 -0.00258764 0.0229085 -0.0186988 -0.0688198 0.0222991 -0.0372633 -0.00637914
internal_weight=0 61283.7 42748.9 18534.8 31088.1 6579.17 11660.8 4028.8 1231.53 14506.2 4589.74 11955.6 9916.44 3172.1 1841.32 5302.73 6358.11 4555.95 1417.64 1130.21 799.451 1330.78 1016.63 17816.6 2550.37 252.805 117.014 13271.4 2797.27 11667.4
internal_count=657261 577763 362822 214941 292562 52317 70260 22082 9757 79498 22871 162624 56627 16966 8570 34472 35788 28551 5905 12392 4392 8396 6434 129425 30235 2498 1098 163137 12325 83299
is_linear=0
shrinkage=0.05


Tree=22
num_leaves=31
num_cat=0
split_feature=19 1 3 1 1 11 22 8 0 1 0 1 13 0 0 1 0 8 8 0 16 1 19 0 8 1 1 8 17 11
split_gain=2522.58 2690.8 3443.62 1189.24 912.404 789.004 786.619 592.231 522.874 684.421 558.356 470.304 347.214 336.663 326.756 1238.92 299.702 235.296 229.558 217.714 203.655 216.874 199.701 188.413 187.352 186.408 177.348 174.016 168.771 168.012
threshold=0.80322580645161301 0.49000000000000005 1.6402142857142858 0.6132478632478634 0.85357142857142865 1.0000000180025095e-35 102.54000000000001 1.5000000000000002 4.5000000000000009 0.78019323671497598 8.5000000000000018 0.88562091503267981 6.4385522883718886 6.5000000000000009 2.5000000000000004 0.6132478632478634 16.500000000000004 4.5000000000000009 1.0000000180025095e-35 11.500000000000002 1.5000000000000002 0.13961038961038963 0.93933823529411775 4.5000000000000009 1.0000000180025095e-35 0.7958333333333335 0.9110671936758894 1.0000000180025095e-35 3.5000000000000004 1.0000000180025095e-35
decision_type=2 2 2 2 2 2 2 2 2 2 2 2 2 2 2 2 2 2 2 2 2 2 2 2 2 2 2 2 2 2
left_child=3 20 5 7 13 14 -6 29 -5 17 24 -12 -7 25 -3 23 27 28 19 -8 21 -2 -15 -16 -11 -4 -21 -13 -10 -1
right_child=1 2 4 8 6 12 18 -9 9 10 11 16 -14 22 15 -17 -18 -19 -20 26 -22 -23 -24 -25 -26 -27 -28 -29 -30 -31
leaf_value=-0.0070659858041350349 0.02821039004755789 -0.048156572788349658 0.023234926389365033 -0.055836624405786933 0.02670265386321917 0.009621393530979426 -0.023226647807348524 -0.034983956597467496 0.042519486723268246 -0.03988014044877055 0.0093294279285771869 -0.025326797964940608 -0.01509659848956741 0.015731155290321236 0.032148125594030311 -0.038917014695761344 0.0047093744672000795 -0.041067637004608075 -0.06707231880426455 0.039107805672348755 0.02856553099022055 0.0075147848270852276 0.036525443783226336 -0.0064646566306338195 -0.073315211534373981 -0.02330360257163033 -0.0085818732893373478 -0.06924048808796604 -0.00066265956611875291 0.0011725950452550656
leaf_weight=12013.508322656155 2235.3488481640816 1945.8305189311504 410.13046707212925 1301.6786280721426 1672.2325264662504 2217.1291133835912 1665.1350726932287 1519.1290095075965 254.13193713873625 855.52881470322609 918.74072159826756 373.98150262981653 3955.1971958130598 1477.1629535108805 820.40332700312138 3702.7950492724776 312.15379142016172 329.77228526026011 209.75667651742697 295.61313148587942 10826.861903138459 2918.7930630147457 5287.4641622900963 513.77728895097971 821.09957218170166 452.63884983956814 572.47709822654724 568.57408486306667 2063.9362931028008 12762.549613207579
leaf_count=83966 27784 7930 4739 5352 20759 18311 7715 6537 1256 3550 6790 1947 24823 16951 9262 18311 2158 1460 985 3333 142877 34080 81896 6098 3564 1923 3654 2552 15205 91493
internal_value=0 0.00862192 -0.00155685 -0.00976601 0.0177621 -0.019242 -0.000326931 -0.00468021 -0.026912 -0.0211178 -0.034575 -0.0178512 -0.00621778 0.0282332 -0.0307546 -0.024032 -0.0377538 -0.00155036 -0.0168053 -0.012643 0.0246711 0.0164905 0.0319847 0.0172788 -0.0562544 -0.00118081 0.00765802 -0.0518167 0.00407144 -0.00282216
internal_weight=0 41178.7 25197.7 34094.8 12042.6 13155.1 4415.21 26295.2 7799.6 6497.92 3850.08 2173.45 6172.33 7627.4 6982.81 5036.98 1254.71 2647.84 2742.98 2533.23 15981 5154.14 6764.63 1334.18 1676.63 862.769 868.09 942.556 2318.07 24776.1
internal_count=657261 431431 226690 225830 141955 84735 36446 181996 43834 38482 20561 13447 43134 105509 41601 33671 6657 17921 15687 14702 204741 61864 98847 15360 7114 6662 6987 4499 16461 175459
is_linear=0
shrinkage=0.05


Tree=23
num_leaves=31
num_cat=0
split_feature=19 0 8 21 19 0 11 23 4 13 27 12 11 13 13 2 2 13 12 11 2 13 25 0 19 7 23 16 26 2
split_gain=2296.31 1202.45 786.993 665.164 314.355 336.888 296.795 256.608 247.96 204.29 189.993 161.279 195.676 478.937 372.182 355.652 165.857 154.322 152.437 149.434 168.561 176.341 137.076 126.261 124.877 121.637 116.056 114.064 111.645 98.6573
threshold=0.84807692307692317 5.5000000000000009 1.0000000180025095e-35 118.62731481481482 0.93933823529411775 9.5000000000000018 1.0000000180025095e-35 5.1932345515360607 0.80625000000000013 6.7161365378208684 18.500000000000004 2.5000000000000004 1.0000000180025095e-35 6.264170455118891 6.3551648718440621 19.500000000000004 22.500000000000004 5.6162816019403303 2.5000000000000004 1.0000000180025095e-35 11.500000000000002 5.9273738253862183 1.0000000180025095e-35 6.5000000000000009 0.53452380952380962 0.41666666666666669 5.1932345515360607 1.5000000000000002 19.500000000000004 22.500000000000004
decision_type=2 2 2 2 2 2 2 2 2 2 2 2 2 2 2 10 10 2 2 2 8 2 2 2 2 2 2 2 2 10
left_child=2 3 7 -2 -3 26 27 9 18 11 25 12 14 15 16 17 -1 -14 22 -13 21 -21 -4 -24 -9 -8 -6 -5 -25 -15
right_child=1 4 8 6 5 -7 10 24 -10 -11 -12 19 13 29 -16 -17 -18 -19 -20 20 -22 -23 23 28 -26 -27 -28 -29 -30 -31
leaf_value=0.020441303402777385 0.017560248148987219 0.0023569455623780669 -0.03040540637313437 -0.014975339564711226 0.024628048296411006 0.03140880131463674 0.00904947798227323 -0.023450580873291899 -0.0054652443077747191 0.0049414639879576836 -0.0096092369523010056 -0.0071248080762686579 -0.037710623382165694 0.032221898944944864 -0.017267146777776597 0.013431840223879466 -0.010463922491497281 -0.0099610155178327022 -0.037909220869152237 -0.079466669110538179 -0.0038425762760475688 -0.026704479934495758 -0.0039118583365287318 -0.020729974309335788 -0.0085110394106868992 -0.19956737547820147 0.011440266205997227 -0.0043445221088892162 -0.073274228131455385 0.0063996245281439353
leaf_weight=1205.6481651961803 5003.304296888411 2363.2589973807335 2186.8644903078675 4073.8724613934755 2394.0924073085189 5675.4237505234778 5920.3041501194239 2210.0285970643163 1675.317580640316 6675.5453605726361 1834.7253644093871 1550.6145585104823 705.62615402042866 1287.779882542789 4375.4648101627827 1427.0493963286281 678.38951265066862 1727.8501986563206 2154.6373926028609 251.82741771638393 356.97690238803625 426.67430068552494 1411.2303088307381 588.65422524511814 3810.5385434478521 6.9954988583922377 5502.6473778747022 6629.0108558237553 122.05605374276638 518.96044181287289
leaf_count=9057 53830 23231 11371 34862 29692 79536 58723 12617 11886 50465 16109 10725 3831 9998 31051 9672 4663 12643 10274 1379 2385 3063 7575 2802 25628 42 62919 62794 567 3871
internal_value=0 0.00858659 -0.00896621 0.00138916 0.0191863 0.0221167 -0.00299261 -0.00488585 -0.0226074 -0.00229753 0.00445107 -0.00562728 -0.00317289 0.0035578 -0.00926677 -0.00638588 0.00931319 -0.0180075 -0.0270506 -0.0169466 -0.0316546 -0.0462873 -0.0216207 -0.0125672 -0.013995 0.00880326 0.0154385 -0.00839096 -0.0297538 0.0248048
internal_weight=0 39403.6 35347.7 23468.2 15935.4 13572.2 18464.9 27209 8138.76 21188.4 7762.03 14512.9 11926.8 5667.27 6259.5 3860.53 1884.04 2433.48 6463.44 2586.09 1035.48 678.502 4308.81 2121.94 6020.57 5927.3 7896.74 10702.9 710.71 1806.74
internal_count=657261 421738 235523 226360 195378 172147 172530 191048 44475 152803 74874 102338 84786 40015 44771 26146 13720 16474 32589 17552 6827 4442 22315 10944 38245 58765 92611 97656 3369 13869
is_linear=0
shrinkage=0.05


Tree=24
num_leaves=31
num_cat=0
split_feature=19 1 17 1 1 13 22 8 0 1 0 11 1 0 1 22 4 0 19 3 16 1 11 8 2 1 0 0 1 0
split_gain=2079.38 2560.33 3031.46 1025.53 859.847 717.864 645.377 490.967 480.205 626.389 519.781 435.673 426.409 296.581 975.36 287.579 270.433 219.533 214.617 213.968 187.828 202.854 183.668 179.79 165.446 191.269 163.318 150.685 696.9 148.766
threshold=0.80322580645161301 0.49000000000000005 6.5000000000000009 0.6132478632478634 0.85357142857142865 6.0527143834046244 95.070000000000007 1.5000000000000002 4.5000000000000009 0.78019323671497598 8.5000000000000018 1.0000000180025095e-35 0.88562091503267981 2.5000000000000004 0.6132478632478634 95.070000000000007 0.73030303030303034 5.5000000000000009 0.93095238095238109 3.1908333333333339 1.5000000000000002 0.13961038961038963 1.0000000180025095e-35 1.0000000180025095e-35 78.500000000000014 0.58957219251336912 4.5000000000000009 4.5000000000000009 0.78019323671497598 6.5000000000000009
decision_type=2 2 2 2 2 2 2 2 2 2 2 2 2 2 2 2 2 2 2 2 2 2 2 2 10 2 2 2 2 2
left_child=3 20 5 7 18 -3 -6 -1 -5 16 23 13 -12 -7 26 -14 17 -10 -4 22 21 -2 -8 -11 25 -9 -15 -16 -29 -27
right_child=1 2 4 8 6 11 19 24 9 10 12 -13 15 14 27 -17 -18 -19 -20 -21 -22 -23 -24 -25 -26 29 -28 28 -30 -31
leaf_value=-0.0023972190936480745 0.027456142421665181 0.0073360566261651376 0.012396644208361503 -0.052578369781753634 0.02676929964369261 -0.048462229447974854 -0.04311524838101681 -0.049987885711640229 0.045946819003415636 -0.037351807478217959 0.0097255848929956572 -0.011532690230117326 -0.0035186669013641206 0.030720119462730674 -0.048110004829507155 -0.053230613664912954 0.01463796818494853 -0.024055503886876085 0.034347878626313479 0.0025089158887334458 0.027642532500530864 0.0072893640706392831 -0.0085989638446909138 -0.07032835927723953 -0.0090028967946193458 0.077918534813471663 -0.0074665237678642835 0.022127783007700352 -0.04631780708678046 -0.064506331264270494
leaf_weight=24890.666666835546 2183.9991206973791 2470.8482786938548 1427.1132265552878 1291.6146903336048 1469.3298978060484 1762.3576871752739 803.33190057426691 921.51318760961294 124.08366065472364 856.52510894834995 922.01698090136051 5198.4051066339016 458.48689038306475 694.5093005746603 1707.8331165164709 796.01147975027561 1392.7032903805375 1150.0170131921768 5066.8810413070023 1073.4249349832535 10515.114909395576 2906.3130382373929 740.84350030124187 798.7970524430275 532.70739675313234 54.202130973339081 469.12602841854095 512.23049605637789 1357.4216754212976 27.706870123744011
leaf_count=175459 27784 21075 16042 5352 19145 7252 3707 3826 597 3550 6790 33994 3047 7994 6889 3610 11443 5881 81572 8401 142877 34080 4134 3564 2365 231 5554 5449 5482 115
internal_value=0 0.00796497 -0.00203424 -0.00879005 0.0182165 -0.0171528 0.000249509 -0.00409027 -0.024733 -0.0191987 -0.0321488 -0.0223237 -0.0160892 -0.0309492 -0.0244393 -0.0350622 -0.000591211 -0.017238 0.0295239 -0.0146368 0.0238259 0.0159419 -0.0265555 -0.0532651 -0.0315236 -0.0434796 0.015325 -0.0373732 -0.0275657 0.0297413
internal_weight=0 40359.1 24753.7 34217.1 10580.9 14172.7 4086.93 26426.8 7790.26 6498.64 3831.84 11701.9 2176.52 6503.48 4741.12 1254.5 2666.8 1274.1 6493.99 2617.6 15605.4 5090.31 1544.18 1655.32 1536.13 1003.42 1163.64 3577.49 1869.65 81.909
internal_count=657261 431431 226690 225830 133001 93689 35387 181996 43834 38482 20561 72614 13447 38620 31368 6657 17921 6478 97614 16242 204741 61864 7841 7114 6537 4172 13548 17820 10931 346
is_linear=0
shrinkage=0.05


Tree=25
num_leaves=31
num_cat=0
split_feature=19 1 0 1 1 13 0 1 22 25 11 8 22 8 3 1 0 12 1 0 0 1 4 0 1 3 0 1 1 16
split_gain=1900.52 2242.13 2994.33 835.09 780.661 660.672 542.122 591.778 506.215 449.519 418.393 303.442 316.001 301.961 287.856 617.005 343.171 286.533 281.358 630.578 268.032 891.482 227.435 216.417 219.575 166.99 163.283 170.788 160.855 188.55
threshold=0.90238095238095251 0.49000000000000005 7.5000000000000009 0.7958333333333335 0.86811594202898557 6.0527143834046244 8.5000000000000018 0.88562091503267981 95.070000000000007 1.0000000180025095e-35 1.0000000180025095e-35 1.0000000180025095e-35 80.040000000000006 1.0000000180025095e-35 1.5670611111111115 0.45643939393939398 4.5000000000000009 2.5000000000000004 0.65942028985507262 2.5000000000000004 2.5000000000000004 0.61721611721611735 0.76696832579185525 3.5000000000000004 0.16333333333333336 2.6202062500000003 16.500000000000004 0.93933823529411775 0.7958333333333335 4.5000000000000009
decision_type=2 2 2 2 2 2 2 2 2 2 2 2 2 2 2 2 2 2 2 2 2 2 2 2 2 2 2 2 2 2
left_child=3 23 5 9 -4 28 13 -8 -6 14 20 -9 -13 -5 15 -1 18 -11 19 -17 -7 -22 -16 24 -2 -10 -14 -28 29 -3
right_child=1 2 4 6 8 10 7 11 25 17 -12 12 26 -15 22 16 -18 -19 -20 -21 21 -23 -24 -25 -26 -27 27 -29 -30 -31
leaf_value=-0.0016339043673965503 0.027552623692777185 0.0030287661274777649 0.034506321112145293 -0.030259426931850117 0.028751299338761284 -0.046090164189430696 0.015323092513873355 -0.0082853732763816107 -0.032533128217663083 -0.011144469069224724 -0.010302751661697971 -0.0046944461905711792 -0.078040280313430771 -0.069123586790735395 -0.010618707708736198 -0.063869960592970274 -0.0018570560673777615 -0.041101029907373236 -0.051122278940312842 0.01424839165175365 0.015563037026327404 -0.035520780145726218 0.016656437916301611 0.030251426198312659 0.011228674482030075 -0.0017756959862618741 0.042442918799676183 -0.093685272737321662 -0.018636786090053811 0.035585977821914493
leaf_weight=21242.484672352672 3532.5178718492389 1320.702648870647 5041.425942517817 1186.6203181371093 1117.3672116920352 1738.5815782397985 1125.0569252967834 797.31094148010015 727.43337564170361 2227.9504703432322 5266.4504628330469 275.13245048373938 589.80660981684923 863.49169313907623 1029.7905941903591 425.62915381789207 1147.7526672109962 1243.9056675955653 1274.0736239254475 657.21552076935768 1129.3861558362842 3503.2632810100913 2964.5572816804051 6332.248599242419 4941.9934701472521 1121.8869033381343 61.605761669576168 36.807162083685398 466.17461684346199 670.46078176796436
leaf_count=151076 46670 10141 84327 4994 15602 7211 9213 5005 3534 11799 34818 1811 2606 3917 6806 1831 7493 5727 5318 4221 13631 17691 28703 91288 61986 7855 463 183 2410 9120
internal_value=0 0.00820185 -0.00188445 -0.00781766 0.0225308 -0.015756 -0.026969 -0.0130021 0.00218019 -0.00488322 -0.0207303 -0.0311018 -0.0499857 -0.0466287 -0.0028304 -0.00484071 -0.0242778 -0.0218774 -0.035196 -0.0164573 -0.0293497 -0.0230671 0.00962458 0.0232584 0.0180332 -0.0138742 -0.068092 -0.00847003 0.00780157 0.0139914
internal_weight=0 36909.9 22103.1 37149.2 8008.11 14095 4935.83 2885.72 2966.69 32213.4 11637.7 1760.66 963.352 2050.11 28741.5 24747.2 3504.67 3471.86 2356.92 1082.84 6371.23 4632.65 3994.35 14806.8 8474.51 1849.32 688.22 98.4129 2457.34 1991.16
internal_count=657450 406284 206340 251166 111318 95022 28192 19281 26991 222974 73351 10068 5063 8911 205448 169939 18863 17526 11370 6052 38533 31322 35509 199944 108656 11389 3252 646 21671 19261
is_linear=0
shrinkage=0.05


Tree=26
num_leaves=31
num_cat=0
split_feature=19 1 0 1 1 11 0 1 0 8 3 1 8 8 22 22 3 1 0 4 0 22 24 1 11 0 1 18 8 3
split_gain=1729.82 2070.18 2737.97 763.312 740.175 565.022 495.637 536.653 478.109 403.313 298.333 880.237 292.543 280.581 294.322 258.796 219.6 443.684 616.989 242.559 214.742 212.268 201.277 164.542 156.505 151.629 152.547 149.624 147.554 146.792
threshold=0.90238095238095251 0.49000000000000005 7.5000000000000009 0.7958333333333335 0.86811594202898557 1.0000000180025095e-35 8.5000000000000018 0.88562091503267981 14.500000000000002 1.5000000000000002 0.52857321428571435 0.65942028985507262 1.0000000180025095e-35 1.0000000180025095e-35 80.040000000000006 225.06500000000003 1.5670611111111115 0.60555555555555574 4.5000000000000009 0.7947368421052633 5.5000000000000009 85.050000000000011 1.0000000180025095e-35 0.23303167420814483 1.0000000180025095e-35 16.500000000000004 0.93933823529411775 2.5000000000000004 1.0000000180025095e-35 1.0002117647058826
decision_type=2 2 2 2 2 2 2 2 2 2 2 2 2 2 2 2 2 2 2 2 2 2 2 2 2 2 2 2 2 2
left_child=3 20 5 9 -4 10 12 -8 21 16 -3 -12 -5 -9 -15 -7 17 27 28 -18 23 -6 -11 -2 -23 -16 -27 -1 -19 -13
right_child=1 2 4 6 8 15 7 13 -10 22 11 29 -14 14 25 -17 19 18 -20 -21 -22 24 -24 -25 -26 26 -28 -29 -30 -31
leaf_value=-0.0015596317418452325 0.02507207695288018 -0.04017691864605246 0.033809481065653645 -0.028719308941287644 0.025504734539114532 0.0061329863808839537 0.014707360519642686 -0.0078415532248527434 0.028953768669923698 -0.032439553187806523 0.014680142648374859 -0.041656268786408775 -0.067219419514015513 -0.0044487060311146623 -0.075420150479421758 -0.013606963075954038 -0.013601879021825764 -0.036627794228993517 0.016083016747840184 0.015270676010880403 0.035548773281149262 -0.035612069923855461 -0.0032970855726184405 0.013272683737097066 -0.0041943851596739513 0.041425773861052326 -0.086978898080717376 -0.01528435859278281 -0.074052900289969012 -0.021856828922060919
leaf_weight=21627.967978328466 6491.9722266048193 2152.0606877207756 4891.8984249383211 1187.7111095637083 300.85370732843876 3100.6582938097417 1113.8424760848284 800.2383042126894 1060.6209778934717 1843.3844577595592 1475.0616315901279 1718.4142375513911 844.04911497235298 275.79635597020388 580.02933716028929 3574.4555058553815 967.26004727929831 872.10076873004436 538.74177292734385 2933.6687409803271 2605.3258805014193 813.48122902959585 873.12553656846285 5422.4057563617826 773.09971548616886 60.003570385277271 37.639990262687206 2186.5513614490628 377.31511089205742 2056.374215580523
leaf_count=152994 87033 9367 84327 4994 4271 25120 9213 5005 13870 7770 18359 7212 3917 1811 2606 23005 6751 3571 3914 28624 40392 4077 4362 72519 4773 463 183 13319 1669 11959
internal_value=0 0.00790294 -0.00179753 -0.00743297 0.0218831 -0.014986 -0.0258202 -0.0124338 0.00209282 -0.00463705 -0.0244988 -0.0180718 -0.0447133 -0.0296721 -0.0479942 -0.00443756 -0.00293961 -0.0046234 -0.0286439 0.00811154 0.0225454 -0.0130014 -0.0230727 0.019702 -0.020303 -0.0657162 -0.00807212 -0.00281978 -0.0479299 -0.0308702
internal_weight=0 36436.7 21917 37119.4 7839.95 14077 4899.31 2867.55 2948.06 32220.1 7401.91 5249.85 2031.76 1753.71 953.469 6675.11 29503.6 25602.7 1788.16 3900.93 14519.7 1887.43 2716.51 11914.4 1586.58 677.673 97.6436 23814.5 1249.42 3774.79
internal_count=657450 406284 206340 251166 111318 95022 28192 19281 26991 222974 46897 37530 8911 10068 5063 48125 210842 175467 9154 35375 199944 13121 12132 159552 8850 3252 646 166313 5240 19171
is_linear=0
shrinkage=0.05


Tree=27
num_leaves=31
num_cat=0
split_feature=19 1 0 1 1 13 0 1 0 29 3 1 8 8 22 3 1 16 4 0 1 0 12 22 1 0 1 16 13 2
split_gain=1575.01 1905.15 2534.56 695.731 690.165 567.926 463.483 487.376 428.297 389.725 359.92 1073.43 282.402 277.014 282.665 211.609 482.517 210.392 210.287 205.345 251.439 260.961 199.313 192.19 185.862 145.394 143.088 172.937 140.32 206.111
threshold=0.9110671936758894 0.49000000000000005 7.5000000000000009 0.7958333333333335 0.86811594202898557 6.0527143834046244 8.5000000000000018 0.88562091503267981 14.500000000000002 1.5000000000000002 0.6003333333333335 0.74342105263157909 1.0000000180025095e-35 1.0000000180025095e-35 80.040000000000006 1.1802083333333335 0.37797619047619052 1.5000000000000002 0.78174603174603186 2.5000000000000004 0.6132478632478634 4.5000000000000009 2.5000000000000004 85.050000000000011 0.10818713450292398 16.500000000000004 0.7958333333333335 4.5000000000000009 5.6162816019403303 12.500000000000002
decision_type=2 2 2 2 2 2 2 2 2 2 2 2 2 2 2 2 2 2 2 2 2 2 2 2 2 2 2 2 2 8
left_child=3 17 5 9 -4 26 12 -8 23 15 -7 -12 -5 -9 -15 16 28 24 -17 -18 -21 -22 -11 -6 -2 -16 27 -3 29 -1
right_child=1 2 4 6 8 10 7 13 -10 22 11 -13 -14 14 25 18 19 -19 -20 20 21 -23 -24 -25 -26 -27 -28 -29 -30 -31
